{"learner":{"attributes":{"scikit_learn":"{\"_estimator_type\": \"regressor\"}"},"feature_names":["Año","Mes","Cost","Objective_Awareness","Objective_Category","Objective_Clicks","Objective_Consideration","Objective_Conversion","Objective_Conversions","Objective_Discovery","Objective_Fans","Objective_Impressions","Objective_Landing Page Views","Objective_NoObjective","Objective_Product","Objective_Purchase","Objective_Reach","Objective_Traffic","Objective_Views","Objective_Whatsapp","Country_Argentina","Country_Chile","Country_Colombia","Country_Ecuador","Country_Mexico","Country_Perú","Country_USA","Media_type_Display","Media_type_Search","Media_type_Social","Media_type_Unknown","Traffic_source_Facebook","Traffic_source_Google","Traffic_source_LinkedIn","Traffic_source_Other","Client_AOV","Client_Braun","Client_ChefJames","Client_Enterprise","Client_Hughesnet","Client_OldGlory","Client_QuickQuack","Format_New_Display","Format_New_Video","Platform_Discovery","Platform_Facebook","Platform_Facebook & Instagram","Platform_Facebook&Instagram","Platform_Google Ads","Platform_Google Ads  PMAX","Platform_Google Ads Display","Platform_Google Ads Search","Platform_LinkedIn","Platform_NoPlatform","Platform_Performance Max","Platform_Programmatic","Platform_Search","Strategy_Awareness","Strategy_Consideration","Strategy_Conversion","Strategy_NoStrategy","Strategy_Views","Plataforma_External Source","Plataforma_Google Ads","Plataforma_Meta","Plataforma_NoPlataforma","Campaign_Type_CONVERSIONS","Campaign_Type_DISCOVERY","Campaign_Type_DISPLAY","Campaign_Type_LINK_CLICKS","Campaign_Type_NoType","Campaign_Type_OUTCOME_AWARENESS","Campaign_Type_OUTCOME_ENGAGEMENT","Campaign_Type_OUTCOME_LEADS","Campaign_Type_OUTCOME_SALES","Campaign_Type_PAGE_LIKES","Campaign_Type_PERFORMANCE_MAX","Campaign_Type_REACH","Campaign_Type_SEARCH","Ecommerce_No","Ecommerce_Si","Service_Product_Prod","Service_Product_Serv","X_pca_0","X_pca_1"],"feature_types":["int","int","float","i","i","i","i","i","i","i","i","i","i","i","i","i","i","i","i","i","i","i","i","i","i","i","i","i","i","i","i","i","i","i","i","i","i","i","i","i","i","i","i","i","i","i","i","i","i","i","i","i","i","i","i","i","i","i","i","i","i","i","i","i","i","i","i","i","i","i","i","i","i","i","i","i","i","i","i","i","i","i","i","float","float"],"gradient_booster":{"model":{"gbtree_model_param":{"num_parallel_tree":"1","num_trees":"40"},"iteration_indptr":[0,1,2,3,4,5,6,7,8,9,10,11,12,13,14,15,16,17,18,19,20,21,22,23,24,25,26,27,28,29,30,31,32,33,34,35,36,37,38,39,40],"tree_info":[0,0,0,0,0,0,0,0,0,0,0,0,0,0,0,0,0,0,0,0,0,0,0,0,0,0,0,0,0,0,0,0,0,0,0,0,0,0,0,0],"trees":[{"base_weights":[1.380353E-9,-5.0674416E-2,9.799615E-2,-6.0921554E-2,1.14764E-2,-1.0608258E-2,1.5389656E-1,-6.601716E-2,-4.7841407E-2,4.4610843E-2,-5.107932E-3,2.3591837E-3,-3.136858E-2,1.9400449E-1,9.264647E-2,-6.9514625E-2,-4.910255E-2,-4.851083E-2,1.6241115E-2,8.17323E-2,1.3883009E-3,-1.1068978E-3,7.6078973E-3,-4.1785142E-3,-4.104947E-2,2.1925178E-1,6.810697E-2,1.4638059E-1,8.6615145E-2,-7.510518E-2,-5.9322394E-2,-5.4517742E-2,-3.4528743E-2,-2.3835264E-2,-5.2738726E-2,5.4980546E-2,1.5085934E-1,1.2906795E-2,-4.4739075E-2,2.2470139E-2,-8.819978E-3,2.7953565E-2,-2.4130486E-2,-4.7372386E-2,-1.521444E-2,2.9311708E-1,1.9884782E-1,1.1000808E-1,4.890204E-2,3.3584587E-2,1.6295545E-1,9.925647E-2,6.621562E-2,-6.0463324E-3,-2.3218915E-3,-3.3411416E-3,-5.440378E-3,-3.446858E-3,-4.9131205E-3,-2.1659804E-3,-3.8185602E-3,-3.0662194E-3,3.6096382E-3,-4.261866E-3,2.983629E-3,1.2142833E-2,3.405269E-3,1.3250536E-2,9.097516E-4,2.6195328E-4,5.58725E-3,-8.837417E-4,-4.5256494E-3,3.931898E-3,2.1713375E-4,-8.2353996E-5,-1.4997121E-3,5.1320908E-3,-1.21926096E-4,-1.0093551E-3,-3.1989955E-3,-1.5671203E-3,-3.992336E-3,-1.8488464E-3,-1.6818871E-4,2.625167E-2,1.8449498E-2,2.1355025E-2,1.305625E-2,9.95898E-3,2.5074868E-3,7.925381E-4,4.9976674E-3,-1.9715922E-3,5.5088447E-3,8.324431E-3,1.4518331E-2,8.935969E-3,5.286364E-3,3.7453275E-3,9.624304E-3],"categories":[],"categories_nodes":[],"categories_segments":[],"categories_sizes":[],"default_left":[0,0,0,0,0,0,0,0,0,0,0,0,0,0,0,0,0,0,0,0,0,0,0,0,0,0,0,0,0,0,0,0,0,0,0,0,0,0,0,0,0,0,0,0,0,0,0,0,0,0,0,0,0,0,0,0,0,0,0,0,0,0,0,0,0,0,0,0,0,0,0,0,0,0,0,0,0,0,0,0,0,0,0,0,0,0,0,0,0,0,0,0,0,0,0,0,0,0,0,0,0],"id":0,"left_children":[1,3,5,7,9,11,13,15,17,19,-1,21,23,25,27,29,31,33,-1,35,37,39,-1,41,43,45,47,49,51,53,55,57,59,61,63,65,67,69,71,73,75,77,79,81,83,85,87,89,91,93,95,97,99,-1,-1,-1,-1,-1,-1,-1,-1,-1,-1,-1,-1,-1,-1,-1,-1,-1,-1,-1,-1,-1,-1,-1,-1,-1,-1,-1,-1,-1,-1,-1,-1,-1,-1,-1,-1,-1,-1,-1,-1,-1,-1,-1,-1,-1,-1,-1,-1],"loss_changes":[2.1139828E1,1.7877498E0,8.810697E0,1.574049E-1,9.9620473E-1,1.330629E-1,2.3354626E0,9.898949E-2,1.238718E-1,4.443285E-1,0E0,9.814532E-2,4.9841046E-2,1.8222828E0,1.107986E-1,7.714033E-2,2.1793544E-2,6.947565E-2,0E0,2.6724678E-1,6.911745E-2,5.3844392E-2,0E0,3.3370547E-2,2.214861E-2,6.666508E-1,7.34818E-2,6.370163E-2,8.2395315E-2,1.7922401E-2,7.5212E-2,1.4461815E-2,6.974697E-3,1.0266265E-1,2.9807448E-2,1.2453553E-1,8.259946E-2,5.6805767E-2,9.739503E-3,3.8342077E-2,1.7225813E-2,2.1438152E-2,5.337715E-3,6.9007576E-3,2.9539233E-3,1.4762592E-1,8.7871265E-1,3.0267984E-2,3.589037E-2,1.4021672E-2,1.6029596E-2,7.9725266E-2,1.3601774E-1,0E0,0E0,0E0,0E0,0E0,0E0,0E0,0E0,0E0,0E0,0E0,0E0,0E0,0E0,0E0,0E0,0E0,0E0,0E0,0E0,0E0,0E0,0E0,0E0,0E0,0E0,0E0,0E0,0E0,0E0,0E0,0E0,0E0,0E0,0E0,0E0,0E0,0E0,0E0,0E0,0E0,0E0,0E0,0E0,0E0,0E0,0E0,0E0],"parents":[2147483647,0,0,1,1,2,2,3,3,4,4,5,5,6,6,7,7,8,8,9,9,11,11,12,12,13,13,14,14,15,15,16,16,17,17,19,19,20,20,21,21,23,23,24,24,25,25,26,26,27,27,28,28,29,29,30,30,31,31,32,32,33,33,34,34,35,35,36,36,37,37,38,38,39,39,40,40,41,41,42,42,43,43,44,44,45,45,46,46,47,47,48,48,49,49,50,50,51,51,52,52],"right_children":[2,4,6,8,10,12,14,16,18,20,-1,22,24,26,28,30,32,34,-1,36,38,40,-1,42,44,46,48,50,52,54,56,58,60,62,64,66,68,70,72,74,76,78,80,82,84,86,88,90,92,94,96,98,100,-1,-1,-1,-1,-1,-1,-1,-1,-1,-1,-1,-1,-1,-1,-1,-1,-1,-1,-1,-1,-1,-1,-1,-1,-1,-1,-1,-1,-1,-1,-1,-1,-1,-1,-1,-1,-1,-1,-1,-1,-1,-1,-1,-1,-1,-1,-1,-1],"split_conditions":[1E0,1E0,1E0,1E0,1E0,1E0,1E0,1E0,1E0,3.154535E2,-5.107932E-3,1E0,2.807E1,1E0,3.1213E2,1E0,6.977362E-1,-1.5745944E0,1.6241115E-2,-1.3724265E-1,9.1176355E2,2.932E1,7.6078973E-3,1E0,1E0,-4.080953E-1,4.4859564E-1,-5.205576E-1,4.329518E-1,1E0,1E0,1E0,-3.4437767E-1,-1.584072E0,1E0,1.9984251E-1,1.1426009E-1,3.309859E-1,1E0,-1.1104814E0,6.824616E-1,1E0,7E0,-6.386169E-1,2.7195E2,1.049875E-1,1E0,7.826781E2,3.8863E2,2.022E3,1E0,1E0,1E0,-6.0463324E-3,-2.3218915E-3,-3.3411416E-3,-5.440378E-3,-3.446858E-3,-4.9131205E-3,-2.1659804E-3,-3.8185602E-3,-3.0662194E-3,3.6096382E-3,-4.261866E-3,2.983629E-3,1.2142833E-2,3.405269E-3,1.3250536E-2,9.097516E-4,2.6195328E-4,5.58725E-3,-8.837417E-4,-4.5256494E-3,3.931898E-3,2.1713375E-4,-8.2353996E-5,-1.4997121E-3,5.1320908E-3,-1.21926096E-4,-1.0093551E-3,-3.1989955E-3,-1.5671203E-3,-3.992336E-3,-1.8488464E-3,-1.6818871E-4,2.625167E-2,1.8449498E-2,2.1355025E-2,1.305625E-2,9.95898E-3,2.5074868E-3,7.925381E-4,4.9976674E-3,-1.9715922E-3,5.5088447E-3,8.324431E-3,1.4518331E-2,8.935969E-3,5.286364E-3,3.7453275E-3,9.624304E-3],"split_indices":[28,35,79,30,27,20,17,24,5,2,0,13,2,7,2,69,83,83,0,84,2,2,0,53,51,84,83,84,83,5,36,15,84,83,40,83,84,84,7,83,83,59,1,84,2,83,15,2,2,0,26,25,21,0,0,0,0,0,0,0,0,0,0,0,0,0,0,0,0,0,0,0,0,0,0,0,0,0,0,0,0,0,0,0,0,0,0,0,0,0,0,0,0,0,0,0,0,0,0,0,0],"split_type":[0,0,0,0,0,0,0,0,0,0,0,0,0,0,0,0,0,0,0,0,0,0,0,0,0,0,0,0,0,0,0,0,0,0,0,0,0,0,0,0,0,0,0,0,0,0,0,0,0,0,0,0,0,0,0,0,0,0,0,0,0,0,0,0,0,0,0,0,0,0,0,0,0,0,0,0,0,0,0,0,0,0,0,0,0,0,0,0,0,0,0,0,0,0,0,0,0,0,0,0,0],"sum_hessian":[4.255E3,2.805E3,1.45E3,2.408E3,3.97E2,4.93E2,9.57E2,1.73E3,6.78E2,2.76E2,1.21E2,3.04E2,1.89E2,5.77E2,3.8E2,1.431E3,2.99E2,6.77E2,1E0,1.48E2,1.28E2,2.94E2,1E1,5E1,1.39E2,4.8E2,9.7E1,3.6E1,3.44E2,9.2E2,5.11E2,2.16E2,8.3E1,1E2,5.77E2,1.08E2,4E1,1.03E2,2.5E1,7.2E1,2.22E2,1.9E1,3.1E1,1.11E2,2.8E1,1.01E2,3.79E2,2.9E1,6.8E1,5E0,3.1E1,2.1E2,1.34E2,9.1E2,1E1,1.71E2,3.4E2,8.4E1,1.32E2,5.5E1,2.8E1,8.3E1,1.7E1,5.74E2,3E0,1.1E1,9.7E1,3.6E1,4E0,8.9E1,1.4E1,7E0,1.8E1,3E1,4.2E1,1.25E2,9.7E1,8E0,1.1E1,1.9E1,1.2E1,1E1,1.01E2,1.7E1,1.1E1,6.2E1,3.9E1,1.28E2,2.51E2,2.4E1,5E0,1.8E1,5E1,2E0,3E0,9E0,2.2E1,1.51E2,5.9E1,1E2,3.4E1],"tree_param":{"num_deleted":"0","num_feature":"85","num_nodes":"101","size_leaf_vector":"1"}},{"base_weights":[3.848717E-5,-4.661724E-2,9.0263106E-2,-5.6054465E-2,1.0621204E-2,-9.752714E-3,1.4174281E-1,-6.0753983E-2,-4.399126E-2,4.1150816E-2,-4.7026468E-3,2.2038089E-3,-2.889475E-2,1.7865258E-1,8.537642E-2,-6.396543E-2,-4.522216E-2,-4.463105E-2,1.55914705E-2,7.53931E-2,1.2806447E-3,-1.0096449E-3,7.0545957E-3,-3.8285118E-3,-3.781963E-2,2.0187613E-1,6.28447E-2,1.3538311E-1,7.976591E-2,-6.9105856E-2,-5.4593757E-2,-5.019485E-2,-3.183769E-2,-2.1923061E-2,-4.852184E-2,5.0724752E-2,1.3913597E-1,1.1930493E-2,-4.1368004E-2,2.0729365E-2,-8.121475E-3,2.596779E-2,-2.233156E-2,-4.3632235E-2,-1.4066838E-2,2.5259858E-1,1.7604548E-1,1.31703755E-2,5.560218E-2,3.1487364E-2,1.5063284E-1,9.138336E-2,6.101741E-2,-5.563157E-3,-2.1530266E-3,-3.0754043E-3,-5.006424E-3,-3.1743539E-3,-4.5230263E-3,-2.2254528E-3,-4.4787046E-3,-2.823842E-3,3.3369106E-3,-3.9215097E-3,2.8046113E-3,1.1252359E-2,3.1356278E-3,1.2219144E-2,8.515275E-4,2.4122972E-4,5.1700682E-3,-8.218797E-4,-4.182653E-3,4.1087777E-3,4.4897659E-4,1.5081339E-4,-1.172663E-3,4.7671422E-3,-1.1298465E-4,-3.1511444E-3,-1.0230093E-3,-2.6319085E-3,-4.028015E-3,-1.7091559E-3,-1.5585482E-4,2.2828666E-2,1.791585E-2,1.6615117E-2,6.9435877E-3,9.748168E-4,5.7108086E-3,-1.8664404E-3,5.178314E-3,7.725073E-3,1.3407364E-2,8.225796E-3,4.870503E-3,6.6023013E-3,1.4082801E-3],"categories":[],"categories_nodes":[],"categories_segments":[],"categories_sizes":[],"default_left":[0,0,0,0,0,0,0,0,0,0,0,0,0,0,0,0,0,0,0,0,0,0,0,0,0,0,0,0,0,0,0,0,0,0,0,0,0,0,0,0,0,0,0,0,0,0,0,0,0,0,0,0,0,0,0,0,0,0,0,0,0,0,0,0,0,0,0,0,0,0,0,0,0,0,0,0,0,0,0,0,0,0,0,0,0,0,0,0,0,0,0,0,0,0,0,0,0,0,0],"id":1,"left_children":[1,3,5,7,9,11,13,15,17,19,-1,21,23,25,27,29,31,33,-1,35,37,39,-1,41,43,45,47,49,51,53,55,57,59,61,63,65,67,69,71,73,75,77,79,81,83,85,87,-1,89,91,93,95,97,-1,-1,-1,-1,-1,-1,-1,-1,-1,-1,-1,-1,-1,-1,-1,-1,-1,-1,-1,-1,-1,-1,-1,-1,-1,-1,-1,-1,-1,-1,-1,-1,-1,-1,-1,-1,-1,-1,-1,-1,-1,-1,-1,-1,-1,-1],"loss_changes":[1.791982E1,1.5163188E0,7.472268E0,1.3389683E-1,8.4573567E-1,1.13126546E-1,1.9778385E0,8.344841E-2,1.12474084E-1,3.7807655E-1,0E0,8.4356986E-2,4.2360723E-2,1.5418262E0,9.609556E-2,6.52132E-2,1.836896E-2,5.8838964E-2,0E0,2.2723472E-1,5.9085555E-2,4.577658E-2,0E0,2.8697344E-2,1.8715411E-2,5.857353E-1,6.308988E-2,5.3879082E-2,6.9568396E-2,1.4978409E-2,6.363821E-2,1.2230337E-2,6.5953434E-3,8.743428E-2,2.5729775E-2,1.0750219E-1,7.0038855E-2,4.866282E-2,8.287307E-3,3.3513963E-2,1.461441E-2,1.8495351E-2,4.7058444E-3,6.419435E-3,2.523058E-3,8.626747E-2,8.91366E-1,0E0,6.2858135E-2,1.244355E-2,1.3159931E-2,6.7361236E-2,1.2462264E-1,0E0,0E0,0E0,0E0,0E0,0E0,0E0,0E0,0E0,0E0,0E0,0E0,0E0,0E0,0E0,0E0,0E0,0E0,0E0,0E0,0E0,0E0,0E0,0E0,0E0,0E0,0E0,0E0,0E0,0E0,0E0,0E0,0E0,0E0,0E0,0E0,0E0,0E0,0E0,0E0,0E0,0E0,0E0,0E0,0E0,0E0],"parents":[2147483647,0,0,1,1,2,2,3,3,4,4,5,5,6,6,7,7,8,8,9,9,11,11,12,12,13,13,14,14,15,15,16,16,17,17,19,19,20,20,21,21,23,23,24,24,25,25,26,26,27,27,28,28,29,29,30,30,31,31,32,32,33,33,34,34,35,35,36,36,37,37,38,38,39,39,40,40,41,41,42,42,43,43,44,44,45,45,46,46,48,48,49,49,50,50,51,51,52,52],"right_children":[2,4,6,8,10,12,14,16,18,20,-1,22,24,26,28,30,32,34,-1,36,38,40,-1,42,44,46,48,50,52,54,56,58,60,62,64,66,68,70,72,74,76,78,80,82,84,86,88,-1,90,92,94,96,98,-1,-1,-1,-1,-1,-1,-1,-1,-1,-1,-1,-1,-1,-1,-1,-1,-1,-1,-1,-1,-1,-1,-1,-1,-1,-1,-1,-1,-1,-1,-1,-1,-1,-1,-1,-1,-1,-1,-1,-1,-1,-1,-1,-1,-1,-1],"split_conditions":[1E0,1E0,1E0,1E0,1E0,1E0,1E0,1E0,1E0,3.154535E2,-4.7026468E-3,1E0,2.807E1,1E0,3.1213E2,1E0,6.977362E-1,-1.5745944E0,1.55914705E-2,-1.3724265E-1,9.1176355E2,2.932E1,7.0545957E-3,1E0,1E0,2.5835E2,2.0348586E-1,-5.205576E-1,4.329518E-1,1E0,1E0,1E0,7.4521E2,-1.584072E0,1E0,1.9984251E-1,1.1426009E-1,3.309859E-1,1E0,-1.1109207E0,-6.1674684E-1,1E0,2.023E3,1.0333E2,2.7195E2,-4.9453577E-1,1E0,1.31703755E-2,3.8863E2,2.022E3,1E0,1E0,1E0,-5.563157E-3,-2.1530266E-3,-3.0754043E-3,-5.006424E-3,-3.1743539E-3,-4.5230263E-3,-2.2254528E-3,-4.4787046E-3,-2.823842E-3,3.3369106E-3,-3.9215097E-3,2.8046113E-3,1.1252359E-2,3.1356278E-3,1.2219144E-2,8.515275E-4,2.4122972E-4,5.1700682E-3,-8.218797E-4,-4.182653E-3,4.1087777E-3,4.4897659E-4,1.5081339E-4,-1.172663E-3,4.7671422E-3,-1.1298465E-4,-3.1511444E-3,-1.0230093E-3,-2.6319085E-3,-4.028015E-3,-1.7091559E-3,-1.5585482E-4,2.2828666E-2,1.791585E-2,1.6615117E-2,6.9435877E-3,9.748168E-4,5.7108086E-3,-1.8664404E-3,5.178314E-3,7.725073E-3,1.3407364E-2,8.225796E-3,4.870503E-3,6.6023013E-3,1.4082801E-3],"split_indices":[28,35,79,30,27,20,17,24,5,2,0,13,2,7,2,69,83,83,0,84,2,2,0,53,51,2,83,84,83,5,36,15,2,83,40,83,84,84,7,83,83,59,0,2,2,84,23,0,2,0,26,25,24,0,0,0,0,0,0,0,0,0,0,0,0,0,0,0,0,0,0,0,0,0,0,0,0,0,0,0,0,0,0,0,0,0,0,0,0,0,0,0,0,0,0,0,0,0,0],"split_type":[0,0,0,0,0,0,0,0,0,0,0,0,0,0,0,0,0,0,0,0,0,0,0,0,0,0,0,0,0,0,0,0,0,0,0,0,0,0,0,0,0,0,0,0,0,0,0,0,0,0,0,0,0,0,0,0,0,0,0,0,0,0,0,0,0,0,0,0,0,0,0,0,0,0,0,0,0,0,0,0,0,0,0,0,0,0,0,0,0,0,0,0,0,0,0,0,0,0,0],"sum_hessian":[4.255E3,2.805E3,1.45E3,2.408E3,3.97E2,4.93E2,9.57E2,1.73E3,6.78E2,2.76E2,1.21E2,3.04E2,1.89E2,5.77E2,3.8E2,1.431E3,2.99E2,6.77E2,1E0,1.48E2,1.28E2,2.94E2,1E1,5E1,1.39E2,4.8E2,9.7E1,3.6E1,3.44E2,9.2E2,5.11E2,2.16E2,8.3E1,1E2,5.77E2,1.08E2,4E1,1.03E2,2.5E1,7.2E1,2.22E2,1.9E1,3.1E1,1.11E2,2.8E1,1.59E2,3.21E2,5E0,9.2E1,5E0,3.1E1,2.1E2,1.34E2,9.1E2,1E1,1.71E2,3.4E2,8.4E1,1.32E2,7.3E1,1E1,8.3E1,1.7E1,5.74E2,3E0,1.1E1,9.7E1,3.6E1,4E0,8.9E1,1.4E1,7E0,1.8E1,2.3E1,4.9E1,8.8E1,1.34E2,8E0,1.1E1,1E1,2.1E1,4.5E1,6.6E1,1.7E1,1.1E1,7E1,8.9E1,2.36E2,8.5E1,2.5E1,6.7E1,2E0,3E0,9E0,2.2E1,1.51E2,5.9E1,8.9E1,4.5E1],"tree_param":{"num_deleted":"0","num_feature":"85","num_nodes":"99","size_leaf_vector":"1"}},{"base_weights":[6.8351124E-5,-4.2885028E-2,8.3133206E-2,-5.1576424E-2,9.8297065E-3,-8.967346E-3,1.3053878E-1,-5.436683E-2,-3.4258664E-2,3.795935E-2,-4.3295184E-3,2.0622255E-3,-2.6625512E-2,1.6450599E-1,7.866586E-2,-5.764537E-2,-4.2712778E-2,5.5524874E-3,-4.1874755E-2,6.954594E-2,1.1813476E-3,-9.168887E-4,6.541534E-3,-3.512819E-3,-3.4854956E-2,1.8585972E-1,5.801974E-2,9.70732E-2,6.575043E-2,-6.1026584E-2,-5.024204E-2,-4.3275967E-2,-1.5841426E-2,-1.0407294E-2,8.049369E-3,-2.5670273E-2,-4.3838393E-2,4.679877E-2,1.2832388E-1,1.1028087E-2,-3.8251046E-2,1.9133449E-2,-7.4763405E-3,2.4123076E-2,-2.0675479E-2,-4.020112E-2,-1.3005802E-2,2.3264536E-1,1.62035E-1,9.596434E-2,4.068122E-2,1.0712869E-1,5.953639E-2,4.7797237E-2,8.054177E-2,-4.938557E-3,6.6456234E-4,-4.179698E-3,6.131478E-4,-3.7595306E-3,-3.0008783E-3,-1.898706E-4,-1.4856491E-3,5.5994675E-3,-2.2589804E-3,-2.51332E-4,-2.6203012E-3,-1.7201966E-3,-3.5818024E-3,7.028469E-3,2.0278343E-3,1.3365176E-2,6.343425E-3,2.2214594E-4,4.7840364E-3,-7.64348E-4,-3.865652E-3,3.3755072E-3,1.6508411E-4,2.3289787E-5,-1.2482223E-3,4.428145E-3,-1.0469886E-4,-2.9219703E-3,-9.4488857E-4,-2.3310166E-3,-3.6570048E-3,-1.5800196E-3,-1.4442574E-4,2.2955019E-2,1.7302282E-2,1.5291517E-2,6.394559E-3,8.742272E-3,1.9596005E-3,6.585909E-4,4.1577863E-3,1.0714008E-2,6.6215354E-3,8.370205E-3,4.027447E-3,5.9144804E-3,1.1179234E-3,5.2462686E-3,8.144099E-3],"categories":[],"categories_nodes":[],"categories_segments":[],"categories_sizes":[],"default_left":[0,0,0,0,0,0,0,0,0,0,0,0,0,0,0,0,0,0,0,0,0,0,0,0,0,0,0,0,0,0,0,0,0,0,0,0,0,0,0,0,0,0,0,0,0,0,0,0,0,0,0,0,0,0,0,0,0,0,0,0,0,0,0,0,0,0,0,0,0,0,0,0,0,0,0,0,0,0,0,0,0,0,0,0,0,0,0,0,0,0,0,0,0,0,0,0,0,0,0,0,0,0,0,0,0],"id":2,"left_children":[1,3,5,7,9,11,13,15,17,19,-1,21,23,25,27,29,31,33,35,37,39,41,-1,43,45,47,49,51,53,55,57,59,61,63,-1,65,67,69,71,73,75,77,79,81,83,85,87,89,91,93,95,97,99,101,103,-1,-1,-1,-1,-1,-1,-1,-1,-1,-1,-1,-1,-1,-1,-1,-1,-1,-1,-1,-1,-1,-1,-1,-1,-1,-1,-1,-1,-1,-1,-1,-1,-1,-1,-1,-1,-1,-1,-1,-1,-1,-1,-1,-1,-1,-1,-1,-1,-1,-1],"loss_changes":[1.5188617E1,1.2861176E0,6.3363523E0,1.1454916E-1,7.179981E-1,9.626734E-2,1.6750336E0,7.6743126E-2,1.0241276E-1,3.2170644E-1,0E0,7.249909E-2,3.6016434E-2,1.3035192E0,8.419585E-2,3.736067E-2,6.260872E-3,8.449374E-2,7.879674E-3,1.9321239E-1,5.0510023E-2,3.8941216E-2,0E0,2.4688333E-2,1.5830427E-2,4.9845505E-1,6.0570598E-2,5.2126884E-2,5.643052E-2,5.4505825E-2,5.982077E-2,7.861555E-3,3.6025E-4,7.0786364E-2,0E0,5.163284E-3,4.2743683E-3,9.377034E-2,6.4632595E-2,4.1687045E-2,7.051401E-3,2.8648548E-2,1.4080709E-2,1.595651E-2,4.064371E-3,5.497277E-3,2.1550334E-3,8.011627E-2,7.5427914E-1,2.5869638E-2,2.4852596E-2,6.789756E-2,9.241499E-3,9.177929E-2,3.2452166E-2,0E0,0E0,0E0,0E0,0E0,0E0,0E0,0E0,0E0,0E0,0E0,0E0,0E0,0E0,0E0,0E0,0E0,0E0,0E0,0E0,0E0,0E0,0E0,0E0,0E0,0E0,0E0,0E0,0E0,0E0,0E0,0E0,0E0,0E0,0E0,0E0,0E0,0E0,0E0,0E0,0E0,0E0,0E0,0E0,0E0,0E0,0E0,0E0,0E0,0E0],"parents":[2147483647,0,0,1,1,2,2,3,3,4,4,5,5,6,6,7,7,8,8,9,9,11,11,12,12,13,13,14,14,15,15,16,16,17,17,18,18,19,19,20,20,21,21,23,23,24,24,25,25,26,26,27,27,28,28,29,29,30,30,31,31,32,32,33,33,35,35,36,36,37,37,38,38,39,39,40,40,41,41,42,42,43,43,44,44,45,45,46,46,47,47,48,48,49,49,50,50,51,51,52,52,53,53,54,54],"right_children":[2,4,6,8,10,12,14,16,18,20,-1,22,24,26,28,30,32,34,36,38,40,42,-1,44,46,48,50,52,54,56,58,60,62,64,-1,66,68,70,72,74,76,78,80,82,84,86,88,90,92,94,96,98,100,102,104,-1,-1,-1,-1,-1,-1,-1,-1,-1,-1,-1,-1,-1,-1,-1,-1,-1,-1,-1,-1,-1,-1,-1,-1,-1,-1,-1,-1,-1,-1,-1,-1,-1,-1,-1,-1,-1,-1,-1,-1,-1,-1,-1,-1,-1,-1,-1,-1,-1,-1],"split_conditions":[1E0,1E0,1E0,1E0,1E0,1E0,1E0,1E0,-1.5745944E0,3.154535E2,-4.3295184E-3,1E0,2.807E1,1E0,1.25006E3,1E0,1E0,-1.5813872E0,1E0,-1.3724265E-1,9.1176355E2,2.932E1,6.541534E-3,1E0,1E0,2.5835E2,4.4859564E-1,1E0,2.023E3,1E0,1E0,4.329518E-1,-1.3480151E0,-2.232781E-1,8.049369E-3,8E0,3.3809998E1,8.785E1,-7.675902E-3,3.309859E-1,1E0,-1.1104814E0,1E0,1E0,2.023E3,8.428E1,2.7195E2,3.780189E1,1E0,7.826781E2,3.8863E2,7E0,2.1144537E2,1E0,1E0,-4.938557E-3,6.6456234E-4,-4.179698E-3,6.131478E-4,-3.7595306E-3,-3.0008783E-3,-1.898706E-4,-1.4856491E-3,5.5994675E-3,-2.2589804E-3,-2.51332E-4,-2.6203012E-3,-1.7201966E-3,-3.5818024E-3,7.028469E-3,2.0278343E-3,1.3365176E-2,6.343425E-3,2.2214594E-4,4.7840364E-3,-7.64348E-4,-3.865652E-3,3.3755072E-3,1.6508411E-4,2.3289787E-5,-1.2482223E-3,4.428145E-3,-1.0469886E-4,-2.9219703E-3,-9.4488857E-4,-2.3310166E-3,-3.6570048E-3,-1.5800196E-3,-1.4442574E-4,2.2955019E-2,1.7302282E-2,1.5291517E-2,6.394559E-3,8.742272E-3,1.9596005E-3,6.585909E-4,4.1577863E-3,1.0714008E-2,6.6215354E-3,8.370205E-3,4.027447E-3,5.9144804E-3,1.1179234E-3,5.2462686E-3,8.144099E-3],"split_indices":[28,35,79,76,27,20,17,24,83,2,0,13,2,7,2,69,17,83,15,84,2,2,0,53,51,2,83,25,0,5,37,83,83,84,0,1,2,2,84,84,7,83,21,59,0,2,2,2,23,2,2,1,2,24,24,0,0,0,0,0,0,0,0,0,0,0,0,0,0,0,0,0,0,0,0,0,0,0,0,0,0,0,0,0,0,0,0,0,0,0,0,0,0,0,0,0,0,0,0,0,0,0,0,0,0],"split_type":[0,0,0,0,0,0,0,0,0,0,0,0,0,0,0,0,0,0,0,0,0,0,0,0,0,0,0,0,0,0,0,0,0,0,0,0,0,0,0,0,0,0,0,0,0,0,0,0,0,0,0,0,0,0,0,0,0,0,0,0,0,0,0,0,0,0,0,0,0,0,0,0,0,0,0,0,0,0,0,0,0,0,0,0,0,0,0,0,0,0,0,0,0,0,0,0,0,0,0,0,0,0,0,0,0],"sum_hessian":[4.255E3,2.805E3,1.45E3,2.408E3,3.97E2,4.93E2,9.57E2,2.072E3,3.36E2,2.76E2,1.21E2,3.04E2,1.89E2,5.77E2,3.8E2,1.614E3,4.58E2,5.4E1,2.82E2,1.48E2,1.28E2,2.94E2,1E1,5E1,1.39E2,4.8E2,9.7E1,1.54E2,2.26E2,1.103E3,5.11E2,4.48E2,1E1,4.7E1,7E0,3.2E1,2.5E2,1.08E2,4E1,1.03E2,2.5E1,7.2E1,2.22E2,1.9E1,3.1E1,1.11E2,2.8E1,1.59E2,3.21E2,2.9E1,6.8E1,1.2E2,3.4E1,1.04E2,1.22E2,1.092E3,1.1E1,4.94E2,1.7E1,2.68E2,1.8E2,2E0,8E0,8E0,3.9E1,8E0,2.4E1,1.1E1,2.39E2,3.6E1,7.2E1,2.1E1,1.9E1,8.9E1,1.4E1,7E0,1.8E1,3E1,4.2E1,1.14E2,1.08E2,8E0,1.1E1,1E1,2.1E1,3.9E1,7.2E1,1.7E1,1.1E1,3.3E1,1.26E2,2.36E2,8.5E1,2.4E1,5E0,1.8E1,5E1,5.5E1,6.5E1,4E0,3E1,5.8E1,4.6E1,7.4E1,4.8E1],"tree_param":{"num_deleted":"0","num_feature":"85","num_nodes":"105","size_leaf_vector":"1"}},{"base_weights":[9.600644E-5,-3.9450034E-2,7.6571606E-2,-4.745573E-2,9.105671E-3,-8.246715E-3,1.20228894E-1,-5.1544487E-2,-3.6962222E-2,3.5027802E-2,-4.9824953E-2,1.9262885E-3,-2.453366E-2,1.0456225E-1,2.16623E-1,-5.429094E-2,-3.826294E-2,-3.7567668E-2,1.49412295E-2,6.417532E-2,1.0897559E-3,-4.418211E-3,-3.6459349E-3,-8.3568686E-4,6.0657864E-3,-3.2228418E-3,-3.2121647E-2,1.8189888E-1,8.005158E-2,2.3383124E-2,1.8212017E-1,-5.871341E-2,-4.622964E-2,-4.318605E-2,-2.7514728E-2,-1.8347522E-2,-4.0861208E-2,4.3137956E-2,1.1853867E-1,1.0193977E-2,-3.536904E-2,1.47028845E-2,-8.290023E-3,2.24094E-2,-1.914228E-2,-3.7038494E-2,-1.2024802E-2,1.0224882E-1,2.0740628E-1,6.4704545E-2,1.1240893E-1,2.2428979E-1,1.6177884E-1,-4.8430157E-3,-4.0562553E-3,-2.5362673E-3,-4.2736894E-3,-2.4722547E-3,-3.8966008E-3,-1.583447E-3,-3.079254E-3,-2.4039424E-3,2.9823994E-3,-3.3063528E-3,2.932648E-3,2.0053375E-3,7.1911993E-3,1.0455448E-2,3.9105068E-4,1.3860994E-3,-3.2851743E-3,-7.108437E-4,-3.5726763E-3,-3.3244037E-4,2.630108E-3,7.724249E-4,-1.1216394E-3,-1.0246907E-3,3.3886586E-3,-7.8308396E-4,-2.5648116E-3,-1.0632774E-3,-3.13891E-3,-1.4606401E-3,-1.3383478E-4,1.8908422E-3,9.159733E-3,1.9146936E-2,1.4021839E-2,6.0085873E-3,3.620215E-3,1.1216262E-2,5.888943E-3,4.426806E-3,1.8279834E-2,1.3171338E-2,6.0422453E-3],"categories":[],"categories_nodes":[],"categories_segments":[],"categories_sizes":[],"default_left":[0,0,0,0,0,0,0,0,0,0,0,0,0,0,0,0,0,0,0,0,0,0,0,0,0,0,0,0,0,0,0,0,0,0,0,0,0,0,0,0,0,0,0,0,0,0,0,0,0,0,0,0,0,0,0,0,0,0,0,0,0,0,0,0,0,0,0,0,0,0,0,0,0,0,0,0,0,0,0,0,0,0,0,0,0,0,0,0,0,0,0,0,0,0,0,0,0],"id":3,"left_children":[1,3,5,7,9,11,13,15,17,19,21,23,25,27,29,31,33,35,-1,37,39,-1,-1,41,-1,43,45,47,49,-1,51,53,55,57,59,61,63,65,67,69,71,73,75,77,79,81,83,85,87,89,91,93,95,-1,-1,-1,-1,-1,-1,-1,-1,-1,-1,-1,-1,-1,-1,-1,-1,-1,-1,-1,-1,-1,-1,-1,-1,-1,-1,-1,-1,-1,-1,-1,-1,-1,-1,-1,-1,-1,-1,-1,-1,-1,-1,-1,-1],"loss_changes":[1.2874473E1,1.0911865E0,5.373955E0,1.0145426E-1,6.0973305E-1,8.189671E-2,1.4240942E0,6.106472E-2,9.899038E-2,2.7394122E-1,2.848506E-4,6.231357E-2,3.062065E-2,1.5511808E0,2.9399014E-1,4.833746E-2,1.4686167E-2,4.2169333E-2,0E0,1.6529202E-1,4.317938E-2,0E0,0E0,3.429166E-2,0E0,2.123956E-2,1.3388455E-2,3.810625E-1,3.0508137E-1,0E0,4.4346333E-2,1.038909E-2,5.179274E-2,1.2329906E-2,7.459119E-3,6.686515E-2,2.2493362E-2,8.983728E-2,5.5996835E-2,3.87329E-2,5.999606E-3,3.3037953E-2,2.070241E-2,1.4593726E-2,3.552746E-3,5.3242743E-3,1.8406883E-3,4.5436025E-2,1.1092901E-1,8.34111E-2,2.064259E-1,7.2636604E-3,4.109025E-3,0E0,0E0,0E0,0E0,0E0,0E0,0E0,0E0,0E0,0E0,0E0,0E0,0E0,0E0,0E0,0E0,0E0,0E0,0E0,0E0,0E0,0E0,0E0,0E0,0E0,0E0,0E0,0E0,0E0,0E0,0E0,0E0,0E0,0E0,0E0,0E0,0E0,0E0,0E0,0E0,0E0,0E0,0E0,0E0],"parents":[2147483647,0,0,1,1,2,2,3,3,4,4,5,5,6,6,7,7,8,8,9,9,10,10,11,11,12,12,13,13,14,14,15,15,16,16,17,17,19,19,20,20,23,23,25,25,26,26,27,27,28,28,30,30,31,31,32,32,33,33,34,34,35,35,36,36,37,37,38,38,39,39,40,40,41,41,42,42,43,43,44,44,45,45,46,46,47,47,48,48,49,49,50,50,51,51,52,52],"right_children":[2,4,6,8,10,12,14,16,18,20,22,24,26,28,30,32,34,36,-1,38,40,-1,-1,42,-1,44,46,48,50,-1,52,54,56,58,60,62,64,66,68,70,72,74,76,78,80,82,84,86,88,90,92,94,96,-1,-1,-1,-1,-1,-1,-1,-1,-1,-1,-1,-1,-1,-1,-1,-1,-1,-1,-1,-1,-1,-1,-1,-1,-1,-1,-1,-1,-1,-1,-1,-1,-1,-1,-1,-1,-1,-1,-1,-1,-1,-1,-1,-1],"split_conditions":[1E0,1E0,1E0,1E0,1E0,1E0,1E0,1E0,1E0,3.154535E2,1E0,1E0,2.807E1,2.5835E2,1.6243093E-2,1E0,4.6055838E-1,-1.5745944E0,1.49412295E-2,-1.3724265E-1,9.1176355E2,-4.418211E-3,-3.6459349E-3,-8.62296E-1,6.0657864E-3,1E0,1E0,1E0,1E0,2.3383124E-2,-1.1109207E0,1E0,1E0,-1.3341305E0,-3.4437767E-1,-1.584072E0,1E0,1.1E1,1.1426009E-1,1.1827255E0,1E0,1E0,-5.80013E-1,8E0,7E0,-6.386169E-1,2.7195E2,-4.9453577E-1,-4.8761928E-1,7.56121E-1,1E0,4.558E2,1E0,-4.8430157E-3,-4.0562553E-3,-2.5362673E-3,-4.2736894E-3,-2.4722547E-3,-3.8966008E-3,-1.583447E-3,-3.079254E-3,-2.4039424E-3,2.9823994E-3,-3.3063528E-3,2.932648E-3,2.0053375E-3,7.1911993E-3,1.0455448E-2,3.9105068E-4,1.3860994E-3,-3.2851743E-3,-7.108437E-4,-3.5726763E-3,-3.3244037E-4,2.630108E-3,7.724249E-4,-1.1216394E-3,-1.0246907E-3,3.3886586E-3,-7.8308396E-4,-2.5648116E-3,-1.0632774E-3,-3.13891E-3,-1.4606401E-3,-1.3383478E-4,1.8908422E-3,9.159733E-3,1.9146936E-2,1.4021839E-2,6.0085873E-3,3.620215E-3,1.1216262E-2,5.888943E-3,4.426806E-3,1.8279834E-2,1.3171338E-2,6.0422453E-3],"split_indices":[28,35,79,30,27,20,16,24,5,2,7,13,2,2,84,69,83,83,0,84,2,0,0,83,0,53,51,15,15,0,83,65,36,83,84,83,40,1,84,83,7,22,84,1,1,84,2,84,84,83,23,2,21,0,0,0,0,0,0,0,0,0,0,0,0,0,0,0,0,0,0,0,0,0,0,0,0,0,0,0,0,0,0,0,0,0,0,0,0,0,0,0,0,0,0,0,0],"split_type":[0,0,0,0,0,0,0,0,0,0,0,0,0,0,0,0,0,0,0,0,0,0,0,0,0,0,0,0,0,0,0,0,0,0,0,0,0,0,0,0,0,0,0,0,0,0,0,0,0,0,0,0,0,0,0,0,0,0,0,0,0,0,0,0,0,0,0,0,0,0,0,0,0,0,0,0,0,0,0,0,0,0,0,0,0,0,0,0,0,0,0,0,0,0,0,0,0],"sum_hessian":[4.255E3,2.805E3,1.45E3,2.408E3,3.97E2,4.93E2,9.57E2,1.73E3,6.78E2,2.76E2,1.21E2,3.04E2,1.89E2,8.25E2,1.32E2,1.431E3,2.99E2,6.77E2,1E0,1.48E2,1.28E2,4.8E1,7.3E1,2.94E2,1E1,5E1,1.39E2,1.97E2,6.28E2,3.9E1,9.3E1,9.2E2,5.11E2,2.03E2,9.6E1,1E2,5.77E2,1.08E2,4E1,1.03E2,2.5E1,9.5E1,1.99E2,1.9E1,3.1E1,1.11E2,2.8E1,4.9E1,1.48E2,4.28E2,2E2,2.7E1,6.6E1,7.44E2,1.76E2,1.71E2,3.4E2,6.5E1,1.38E2,5.8E1,3.8E1,8.3E1,1.7E1,5.74E2,3E0,7.9E1,2.9E1,3.6E1,4E0,9.1E1,1.2E1,7E0,1.8E1,4.7E1,4.8E1,4.8E1,1.51E2,7E0,1.2E1,1.9E1,1.2E1,1E1,1.01E2,1.7E1,1.1E1,7E0,4.2E1,7.1E1,7.7E1,2.77E2,1.51E2,1.15E2,8.5E1,1E0,2.6E1,6.3E1,3E0],"tree_param":{"num_deleted":"0","num_feature":"85","num_nodes":"97","size_leaf_vector":"1"}},{"base_weights":[1.1926827E-4,-3.62961E-2,7.054064E-2,-4.3664087E-2,8.391781E-3,-7.584481E-3,1.1075281E-1,-4.6097744E-2,-2.8564269E-2,3.2275617E-2,-4.5905057E-2,1.7984618E-3,-2.2606656E-2,9.6283175E-2,1.9978416E-1,-4.886995E-2,-3.624327E-2,6.4024758E-3,-3.525899E-2,5.9175815E-2,9.546487E-4,-4.0719677E-3,-3.3582018E-3,-7.6222676E-4,5.624638E-3,-2.9843063E-3,-2.959332E-2,1.675703E-1,7.368996E-2,2.155924E-2,1.6799653E-1,-4.6762403E-2,-5.9288226E-2,-3.675744E-2,-1.1960987E-2,-4.589309E-2,3.1005573E-2,-2.0497512E-2,-3.705927E-2,9.739593E-2,3.374546E-2,9.360199E-3,-3.270427E-2,1.7046425E-2,-6.5885466E-3,2.0734847E-2,-1.7715517E-2,-3.4112934E-2,-1.1117799E-2,9.428992E-2,1.9103639E-1,5.9550628E-2,1.0350131E-1,2.0715755E-1,1.4912331E-1,-3.7857546E-3,-1.4107282E-3,-4.7810343E-3,-3.1189518E-3,-3.1965587E-3,-2.5439383E-3,-4.7890742E-5,-1.1535552E-3,-9.2658936E-4,-3.9566425E-3,1.1625736E-3,7.277145E-3,1.6586978E-6,-2.1651343E-3,-3.1191173E-3,-2.1222732E-3,1.4942082E-2,5.6481212E-3,3.387763E-5,5.949736E-3,1.4474282E-4,4.3233335E-3,-6.6108454E-4,-3.3019052E-3,3.4419673E-3,3.3887802E-4,-1.3272705E-5,-1.1823195E-3,3.9115134E-3,-1.6898871E-4,-2.522932E-3,-7.9997606E-4,-1.9334211E-3,-3.1276036E-3,-1.2272748E-3,1.5084386E-4,1.0225145E-2,5.0707613E-3,1.9758279E-2,1.3839415E-2,5.7141E-3,3.5727248E-3,1.0326697E-2,5.4233056E-3,4.2497334E-3,1.6871609E-2,1.2134095E-2,5.679711E-3],"categories":[],"categories_nodes":[],"categories_segments":[],"categories_sizes":[],"default_left":[0,0,0,0,0,0,0,0,0,0,0,0,0,0,0,0,0,0,0,0,0,0,0,0,0,0,0,0,0,0,0,0,0,0,0,0,0,0,0,0,0,0,0,0,0,0,0,0,0,0,0,0,0,0,0,0,0,0,0,0,0,0,0,0,0,0,0,0,0,0,0,0,0,0,0,0,0,0,0,0,0,0,0,0,0,0,0,0,0,0,0,0,0,0,0,0,0,0,0,0,0,0,0],"id":4,"left_children":[1,3,5,7,9,11,13,15,17,19,21,23,25,27,29,31,33,35,37,39,41,-1,-1,43,-1,45,47,49,51,-1,53,55,57,59,61,63,65,67,69,71,73,75,77,79,81,83,85,87,89,91,93,95,97,99,101,-1,-1,-1,-1,-1,-1,-1,-1,-1,-1,-1,-1,-1,-1,-1,-1,-1,-1,-1,-1,-1,-1,-1,-1,-1,-1,-1,-1,-1,-1,-1,-1,-1,-1,-1,-1,-1,-1,-1,-1,-1,-1,-1,-1,-1,-1,-1,-1],"loss_changes":[1.0916732E1,9.2426944E-1,4.559274E0,8.720875E-2,5.1761466E-1,6.9671035E-2,1.2149086E0,5.4860115E-2,7.9114944E-2,2.3332712E-1,2.565384E-4,5.356021E-2,2.59597E-2,1.3180118E0,2.4942827E-1,3.2687902E-2,5.2911043E-3,7.218775E-2,6.7610443E-3,1.4153403E-1,3.6803022E-2,0E0,0E0,3.0721188E-2,0E0,1.8187333E-2,1.1311054E-2,3.2246828E-1,2.5896764E-1,0E0,3.858304E-2,2.1135569E-2,2.527833E-4,5.8523417E-3,2.9864E-4,1.6288459E-3,3.621163E-2,4.446865E-3,4.066348E-3,1.2811166E-1,1.23159505E-1,3.4990355E-2,5.104525E-3,2.4111561E-2,1.1728302E-2,1.2970405E-2,3.0971663E-3,4.6045184E-3,1.6214582E-3,4.370281E-2,1.0767603E-1,7.267749E-2,1.7487216E-1,4.9169064E-3,2.5945902E-3,0E0,0E0,0E0,0E0,0E0,0E0,0E0,0E0,0E0,0E0,0E0,0E0,0E0,0E0,0E0,0E0,0E0,0E0,0E0,0E0,0E0,0E0,0E0,0E0,0E0,0E0,0E0,0E0,0E0,0E0,0E0,0E0,0E0,0E0,0E0,0E0,0E0,0E0,0E0,0E0,0E0,0E0,0E0,0E0,0E0,0E0,0E0,0E0],"parents":[2147483647,0,0,1,1,2,2,3,3,4,4,5,5,6,6,7,7,8,8,9,9,10,10,11,11,12,12,13,13,14,14,15,15,16,16,17,17,18,18,19,19,20,20,23,23,25,25,26,26,27,27,28,28,30,30,31,31,32,32,33,33,34,34,35,35,36,36,37,37,38,38,39,39,40,40,41,41,42,42,43,43,44,44,45,45,46,46,47,47,48,48,49,49,50,50,51,51,52,52,53,53,54,54],"right_children":[2,4,6,8,10,12,14,16,18,20,22,24,26,28,30,32,34,36,38,40,42,-1,-1,44,-1,46,48,50,52,-1,54,56,58,60,62,64,66,68,70,72,74,76,78,80,82,84,86,88,90,92,94,96,98,100,102,-1,-1,-1,-1,-1,-1,-1,-1,-1,-1,-1,-1,-1,-1,-1,-1,-1,-1,-1,-1,-1,-1,-1,-1,-1,-1,-1,-1,-1,-1,-1,-1,-1,-1,-1,-1,-1,-1,-1,-1,-1,-1,-1,-1,-1,-1,-1,-1],"split_conditions":[1E0,1E0,1E0,1E0,1E0,1E0,1E0,1E0,-1.5745944E0,3.154535E2,1E0,1E0,2.807E1,2.5835E2,1.6243093E-2,1E0,1E0,1E0,1E0,6E0,9.1176355E2,-4.0719677E-3,-3.3582018E-3,2.932E1,5.624638E-3,1E0,1E0,1E0,1E0,2.155924E-2,-1.1109207E0,1E0,1E0,4.329518E-1,-1.3480151E0,2.013E1,-1.5813872E0,8E0,1E0,6.039E1,1.4032415E0,3.309859E-1,1E0,-1.1109207E0,6.824616E-1,1E0,2.023E3,8.428E1,-2.689186E-1,2.0348586E-1,3.780189E1,4.6785095E-1,1E0,4.558E2,1E0,-3.7857546E-3,-1.4107282E-3,-4.7810343E-3,-3.1189518E-3,-3.1965587E-3,-2.5439383E-3,-4.7890742E-5,-1.1535552E-3,-9.2658936E-4,-3.9566425E-3,1.1625736E-3,7.277145E-3,1.6586978E-6,-2.1651343E-3,-3.1191173E-3,-2.1222732E-3,1.4942082E-2,5.6481212E-3,3.387763E-5,5.949736E-3,1.4474282E-4,4.3233335E-3,-6.6108454E-4,-3.3019052E-3,3.4419673E-3,3.3887802E-4,-1.3272705E-5,-1.1823195E-3,3.9115134E-3,-1.6898871E-4,-2.522932E-3,-7.9997606E-4,-1.9334211E-3,-3.1276036E-3,-1.2272748E-3,1.5084386E-4,1.0225145E-2,5.0707613E-3,1.9758279E-2,1.3839415E-2,5.7141E-3,3.5727248E-3,1.0326697E-2,5.4233056E-3,4.2497334E-3,1.6871609E-2,1.2134095E-2,5.679711E-3],"split_indices":[28,35,79,76,27,20,16,24,83,2,7,13,2,2,84,3,17,42,15,1,2,0,0,2,0,53,51,15,15,0,83,48,69,83,83,2,83,1,22,2,83,84,7,83,83,59,0,2,84,83,2,83,23,2,21,0,0,0,0,0,0,0,0,0,0,0,0,0,0,0,0,0,0,0,0,0,0,0,0,0,0,0,0,0,0,0,0,0,0,0,0,0,0,0,0,0,0,0,0,0,0,0,0],"split_type":[0,0,0,0,0,0,0,0,0,0,0,0,0,0,0,0,0,0,0,0,0,0,0,0,0,0,0,0,0,0,0,0,0,0,0,0,0,0,0,0,0,0,0,0,0,0,0,0,0,0,0,0,0,0,0,0,0,0,0,0,0,0,0,0,0,0,0,0,0,0,0,0,0,0,0,0,0,0,0,0,0,0,0,0,0,0,0,0,0,0,0,0,0,0,0,0,0,0,0,0,0,0,0],"sum_hessian":[4.255E3,2.805E3,1.45E3,2.408E3,3.97E2,4.93E2,9.57E2,2.072E3,3.36E2,2.76E2,1.21E2,3.04E2,1.89E2,8.25E2,1.32E2,1.614E3,4.58E2,5.4E1,2.82E2,1.48E2,1.28E2,4.8E1,7.3E1,2.94E2,1E1,5E1,1.39E2,1.97E2,6.28E2,3.9E1,9.3E1,1.347E3,2.67E2,4.48E2,1E1,1.7E1,3.7E1,3.2E1,2.5E2,5.8E1,9E1,1.03E2,2.5E1,7.2E1,2.22E2,1.9E1,3.1E1,1.11E2,2.8E1,4.9E1,1.48E2,4.28E2,2E2,2.7E1,6.6E1,1.321E3,2.6E1,2.59E2,8E0,2.68E2,1.8E2,2E0,8E0,2E0,1.5E1,3E1,7E0,8E0,2.4E1,2.09E2,4.1E1,1.2E1,4.6E1,5E1,4E1,8.9E1,1.4E1,7E0,1.8E1,2.3E1,4.9E1,1.25E2,9.7E1,8E0,1.1E1,1E1,2.1E1,3.9E1,7.2E1,2.1E1,7E0,2.2E1,2.7E1,3.3E1,1.15E2,2.36E2,1.92E2,1.15E2,8.5E1,1E0,2.6E1,6.3E1,3E0],"tree_param":{"num_deleted":"0","num_feature":"85","num_nodes":"103","size_leaf_vector":"1"}},{"base_weights":[1.4090168E-4,-3.3393923E-2,6.499174E-2,-4.0180873E-2,7.769807E-3,-6.972679E-3,1.0203291E-1,-3.670285E-2,-4.926589E-2,2.9791325E-2,-4.229356E-2,-1.413558E-2,1.0707837E-2,8.867002E-2,1.8425629E-1,-3.9165433E-2,-2.6290545E-2,-5.3181566E-2,-4.5400947E-2,5.4620095E-2,8.8219333E-4,-3.7528586E-3,-3.0931765E-3,7.604176E-2,-1.5654106E-2,3.149873E-2,-8.5625565E-3,1.8190756E-1,7.378975E-2,2.4847025E-1,1.5497102E-1,-4.1276734E-2,-2.4693165E-2,5.9549417E-3,-3.2464437E-2,-4.3587447E-3,-3.3763714E-2,-4.0346947E-3,-4.0619258E-2,3.5991278E-2,1.02813296E-1,8.654348E-3,-3.0240353E-2,2.0979978E-3,7.5515127E-3,-1.9326296E-2,-1.3599584E-3,4.126079E-2,1.4785127E-2,5.938343E-2,-1.6430281E-2,2.2996627E-1,1.3562293E-1,5.7224493E-2,1.0393232E-1,5.5620745E-3,2.5127584E-1,1.9133928E-1,1.3745932E-1,-3.6404203E-3,-2.70637E-3,-2.2929285E-3,1.0444849E-3,-3.3994343E-3,2.299778E-3,-1.5138618E-3,-2.7292327E-3,-2.3981549E-4,-3.0582987E-3,-2.9677812E-3,-3.6699711E-3,8.916793E-3,2.110637E-3,1.0966268E-2,4.798484E-3,1.2140936E-3,-3.0532654E-3,8.442998E-6,-2.861007E-3,-1.7027687E-3,1.2933875E-3,2.1534807E-3,-2.0419719E-4,-1.546666E-3,3.5750514E-3,3.8319008E-4,1.7085994E-3,2.5309192E-3,5.5763433E-3,-2.0111375E-3,4.6685687E-5,3.1454228E-3,1.8625723E-2,1.3006553E-2,8.095875E-3,1.5099083E-2,4.406787E-3,5.2744625E-3,1.015162E-2,2.0954814E-2,1.1919494E-2,4.079744E-3,1.5571871E-2,1.1178535E-2,5.3389287E-3],"categories":[],"categories_nodes":[],"categories_segments":[],"categories_sizes":[],"default_left":[0,0,0,0,0,0,0,0,0,0,0,0,0,0,0,0,0,0,0,0,0,0,0,0,0,0,0,0,0,0,0,0,0,0,0,0,0,0,0,0,0,0,0,0,0,0,0,0,0,0,0,0,0,0,0,0,0,0,0,0,0,0,0,0,0,0,0,0,0,0,0,0,0,0,0,0,0,0,0,0,0,0,0,0,0,0,0,0,0,0,0,0,0,0,0,0,0,0,0,0,0,0,0,0,0],"id":5,"left_children":[1,3,5,7,9,11,13,15,17,19,21,23,25,27,29,31,33,35,37,39,41,-1,-1,43,45,47,49,51,53,55,57,59,61,63,65,-1,67,-1,69,71,73,75,77,-1,-1,79,81,83,85,87,89,91,93,95,97,-1,99,101,103,-1,-1,-1,-1,-1,-1,-1,-1,-1,-1,-1,-1,-1,-1,-1,-1,-1,-1,-1,-1,-1,-1,-1,-1,-1,-1,-1,-1,-1,-1,-1,-1,-1,-1,-1,-1,-1,-1,-1,-1,-1,-1,-1,-1,-1,-1],"loss_changes":[9.257955E0,7.8424215E-1,3.8685637E0,7.431078E-2,4.4004357E-1,6.2713385E-2,1.0362558E0,4.3739796E-2,7.634282E-3,1.9877635E-1,2.3034215E-4,4.9392052E-2,5.756247E-2,1.1325688E0,2.1160412E-1,4.2063713E-2,6.728335E-2,6.3565373E-3,6.1576366E-3,1.3006929E-1,3.146542E-2,0E0,0E0,3.0099899E-3,1.818803E-2,1.0647938E-2,4.1069213E-2,2.2016597E-1,3.5056686E-1,2.611637E-3,3.3564568E-2,3.7162304E-2,2.7638838E-2,6.195463E-2,5.6812167E-3,0E0,3.0449312E-3,0E0,1.6298592E-3,7.6098144E-2,5.1951528E-2,3.233591E-2,4.3607783E-3,0E0,0E0,1.9528247E-2,2.496711E-3,9.794109E-3,1.6713967E-3,8.5778534E-5,1.0090407E-2,2.024126E-2,3.922999E-2,1.1988914E-1,2.1153522E-1,0E0,3.4935474E-3,3.0767918E-3,1.442194E-3,0E0,0E0,0E0,0E0,0E0,0E0,0E0,0E0,0E0,0E0,0E0,0E0,0E0,0E0,0E0,0E0,0E0,0E0,0E0,0E0,0E0,0E0,0E0,0E0,0E0,0E0,0E0,0E0,0E0,0E0,0E0,0E0,0E0,0E0,0E0,0E0,0E0,0E0,0E0,0E0,0E0,0E0,0E0,0E0,0E0,0E0],"parents":[2147483647,0,0,1,1,2,2,3,3,4,4,5,5,6,6,7,7,8,8,9,9,10,10,11,11,12,12,13,13,14,14,15,15,16,16,17,17,18,18,19,19,20,20,23,23,24,24,25,25,26,26,27,27,28,28,29,29,30,30,31,31,32,32,33,33,34,34,36,36,38,38,39,39,40,40,41,41,42,42,45,45,46,46,47,47,48,48,49,49,50,50,51,51,52,52,53,53,54,54,56,56,57,57,58,58],"right_children":[2,4,6,8,10,12,14,16,18,20,22,24,26,28,30,32,34,36,38,40,42,-1,-1,44,46,48,50,52,54,56,58,60,62,64,66,-1,68,-1,70,72,74,76,78,-1,-1,80,82,84,86,88,90,92,94,96,98,-1,100,102,104,-1,-1,-1,-1,-1,-1,-1,-1,-1,-1,-1,-1,-1,-1,-1,-1,-1,-1,-1,-1,-1,-1,-1,-1,-1,-1,-1,-1,-1,-1,-1,-1,-1,-1,-1,-1,-1,-1,-1,-1,-1,-1,-1,-1,-1,-1],"split_conditions":[1E0,1E0,1E0,1E0,1E0,1E0,1E0,1E0,1E0,3.154535E2,1E0,-7.166058E-1,1.0332412E-1,-4.080953E-1,1.6243093E-2,1E0,-1.5745944E0,1E0,1E0,-1.3724265E-1,9.1176355E2,-3.7528586E-3,-3.0931765E-3,1E0,1E0,1E0,-5.80013E-1,9.510408E-2,1E0,2E0,-1.1109207E0,1E0,1E0,1E0,1E0,-4.3587447E-3,6.824616E-1,-4.0346947E-3,1E0,1.9984251E-1,-7.675902E-3,1.1827255E0,-6.7583424E-1,2.0979978E-3,7.5515127E-3,1E0,-7.0735586E-1,1.895862E0,5E0,1.2E1,1E0,1E0,-5.337899E-1,8.977E1,1E0,5.5620745E-3,1.2E1,4.558E2,1E0,-3.6404203E-3,-2.70637E-3,-2.2929285E-3,1.0444849E-3,-3.3994343E-3,2.299778E-3,-1.5138618E-3,-2.7292327E-3,-2.3981549E-4,-3.0582987E-3,-2.9677812E-3,-3.6699711E-3,8.916793E-3,2.110637E-3,1.0966268E-2,4.798484E-3,1.2140936E-3,-3.0532654E-3,8.442998E-6,-2.861007E-3,-1.7027687E-3,1.2933875E-3,2.1534807E-3,-2.0419719E-4,-1.546666E-3,3.5750514E-3,3.8319008E-4,1.7085994E-3,2.5309192E-3,5.5763433E-3,-2.0111375E-3,4.6685687E-5,3.1454228E-3,1.8625723E-2,1.3006553E-2,8.095875E-3,1.5099083E-2,4.406787E-3,5.2744625E-3,1.015162E-2,2.0954814E-2,1.1919494E-2,4.079744E-3,1.5571871E-2,1.1178535E-2,5.3389287E-3],"split_indices":[28,35,79,36,27,22,16,76,69,2,7,84,83,84,84,69,83,9,22,84,2,0,0,13,15,14,84,83,15,1,83,24,37,42,15,0,83,0,42,83,84,83,83,0,0,5,84,2,1,1,3,15,84,2,53,0,1,2,21,0,0,0,0,0,0,0,0,0,0,0,0,0,0,0,0,0,0,0,0,0,0,0,0,0,0,0,0,0,0,0,0,0,0,0,0,0,0,0,0,0,0,0,0,0,0],"split_type":[0,0,0,0,0,0,0,0,0,0,0,0,0,0,0,0,0,0,0,0,0,0,0,0,0,0,0,0,0,0,0,0,0,0,0,0,0,0,0,0,0,0,0,0,0,0,0,0,0,0,0,0,0,0,0,0,0,0,0,0,0,0,0,0,0,0,0,0,0,0,0,0,0,0,0,0,0,0,0,0,0,0,0,0,0,0,0,0,0,0,0,0,0,0,0,0,0,0,0,0,0,0,0,0,0],"sum_hessian":[4.255E3,2.805E3,1.45E3,2.408E3,3.97E2,4.93E2,9.57E2,1.745E3,6.63E2,2.76E2,1.21E2,3.51E2,1.42E2,8.25E2,1.32E2,1.409E3,3.36E2,3.23E2,3.4E2,1.48E2,1.28E2,4.8E1,7.3E1,5E0,3.46E2,6.8E1,7.4E1,1.12E2,7.13E2,3.9E1,9.3E1,1.228E3,1.81E2,5.4E1,2.82E2,3.01E2,2.2E1,1.61E2,1.79E2,1.08E2,4E1,1.03E2,2.5E1,2E0,3E0,2.75E2,7.1E1,4.2E1,2.6E1,7E0,6.7E1,5.3E1,5.9E1,4.62E2,2.51E2,1E0,3.8E1,2.7E1,6.6E1,7.8E2,4.48E2,1.64E2,1.7E1,1.7E1,3.7E1,3.2E1,2.5E2,3E0,1.9E1,1.12E2,6.7E1,1.1E1,9.7E1,2.1E1,1.9E1,9.1E1,1.2E1,4E0,2.1E1,2.61E2,1.4E1,2E0,6.9E1,2E0,4E1,1.1E1,1.5E1,3E0,4E0,4.4E1,2.3E1,1E0,5.2E1,3.1E1,2.8E1,6E0,4.56E2,9.6E1,1.55E2,3.3E1,5E0,1E0,2.6E1,6.3E1,3E0],"tree_param":{"num_deleted":"0","num_feature":"85","num_nodes":"105","size_leaf_vector":"1"}},{"base_weights":[1.6671873E-4,-3.0728115E-2,5.9912227E-2,-3.6979385E-2,7.1865493E-3,-6.3714376E-3,9.402937E-2,-4.024097E-2,-2.861004E-2,2.7487803E-2,-3.896619E-2,1.9328017E-3,-1.9668393E-2,8.167062E-2,1.7007671E-1,-4.2425442E-2,-2.967962E-2,-2.9192084E-2,1.4640627E-2,5.04303E-2,7.7524723E-4,-3.458757E-3,-2.8490662E-3,-3.3819294E-4,5.012883E-3,-2.3522682E-3,-2.5835922E-2,1.4305304E-1,6.2218487E-2,2.2955354E-1,1.429581E-1,-4.6105124E-2,-3.5723463E-2,-3.4058034E-2,-2.0165432E-2,3.2808245E-3,-3.0753044E-2,3.3213142E-2,9.497274E-2,7.944314E-3,-2.7930837E-2,1.4931008E-2,-5.3351144E-3,1.917931E-2,-1.5735997E-2,-2.9821802E-2,-9.551283E-3,8.0222346E-2,1.6317707E-1,5.040311E-2,8.712683E-2,5.3395913E-3,2.3201671E-1,1.7673399E-1,1.267091E-1,-3.7149123E-3,-1.1581919E-3,-2.9911378E-3,9.6556847E-4,-1.8329371E-3,-3.1284406E-3,-1.0460122E-3,-2.4299754E-3,3.884474E-3,-1.3237316E-3,-2.491594E-3,3.2022595E-3,1.0358352E-3,5.3206338E-3,-5.8148387E-3,8.078506E-3,8.2762344E-5,3.909872E-3,-5.293162E-4,-2.8348216E-3,3.0425685E-3,2.8350882E-4,7.442748E-5,-9.517211E-4,2.6397586E-3,-1.4849134E-3,-6.472522E-4,-2.103008E-3,-6.9544284E-4,-2.5446417E-3,-1.0471063E-3,1.09670604E-4,5.348665E-4,7.363033E-3,1.2176264E-2,1.8766882E-2,4.9285945E-3,2.9616207E-3,8.881525E-3,4.3109586E-3,1.9327734E-2,1.112486E-2,3.916554E-3,1.4372259E-2,1.0298226E-2,5.018593E-3],"categories":[],"categories_nodes":[],"categories_segments":[],"categories_sizes":[],"default_left":[0,0,0,0,0,0,0,0,0,0,0,0,0,0,0,0,0,0,0,0,0,0,0,0,0,0,0,0,0,0,0,0,0,0,0,0,0,0,0,0,0,0,0,0,0,0,0,0,0,0,0,0,0,0,0,0,0,0,0,0,0,0,0,0,0,0,0,0,0,0,0,0,0,0,0,0,0,0,0,0,0,0,0,0,0,0,0,0,0,0,0,0,0,0,0,0,0,0,0,0,0],"id":6,"left_children":[1,3,5,7,9,11,13,15,17,19,21,23,25,27,29,31,33,35,-1,37,39,-1,-1,41,-1,43,45,47,49,51,53,55,57,59,61,63,65,67,69,71,73,75,77,79,81,83,85,87,89,91,93,-1,95,97,99,-1,-1,-1,-1,-1,-1,-1,-1,-1,-1,-1,-1,-1,-1,-1,-1,-1,-1,-1,-1,-1,-1,-1,-1,-1,-1,-1,-1,-1,-1,-1,-1,-1,-1,-1,-1,-1,-1,-1,-1,-1,-1,-1,-1,-1,-1],"loss_changes":[7.857683E0,6.65329E-1,3.2819033E0,6.46081E-2,3.7398058E-1,5.4586038E-2,8.86487E-1,3.867674E-2,8.897549E-2,1.697211E-1,2.0621717E-4,4.208481E-2,2.0230792E-2,9.773588E-1,1.8170309E-1,3.3667564E-2,1.1810333E-2,3.4467936E-2,0E0,1.1111289E-1,2.6769554E-2,0E0,0E0,2.2587866E-2,0E0,1.49986185E-2,8.802362E-3,2.3726225E-1,1.8072414E-1,5.5503845E-4,2.9195547E-2,8.977771E-3,4.121256E-2,1.058124E-2,6.6243373E-3,2.952954E-2,1.9193113E-2,7.268392E-2,4.8642844E-2,2.9361801E-2,3.9243065E-3,1.906828E-2,9.178637E-3,1.104225E-2,2.368777E-3,4.42373E-3,1.1384359E-3,4.282841E-2,8.1055164E-2,6.204593E-2,1.5364659E-1,0E0,1.1332035E-3,1.6492009E-3,5.776882E-4,0E0,0E0,0E0,0E0,0E0,0E0,0E0,0E0,0E0,0E0,0E0,0E0,0E0,0E0,0E0,0E0,0E0,0E0,0E0,0E0,0E0,0E0,0E0,0E0,0E0,0E0,0E0,0E0,0E0,0E0,0E0,0E0,0E0,0E0,0E0,0E0,0E0,0E0,0E0,0E0,0E0,0E0,0E0,0E0,0E0,0E0],"parents":[2147483647,0,0,1,1,2,2,3,3,4,4,5,5,6,6,7,7,8,8,9,9,10,10,11,11,12,12,13,13,14,14,15,15,16,16,17,17,19,19,20,20,23,23,25,25,26,26,27,27,28,28,29,29,30,30,31,31,32,32,33,33,34,34,35,35,36,36,37,37,38,38,39,39,40,40,41,41,42,42,43,43,44,44,45,45,46,46,47,47,48,48,49,49,50,50,52,52,53,53,54,54],"right_children":[2,4,6,8,10,12,14,16,18,20,22,24,26,28,30,32,34,36,-1,38,40,-1,-1,42,-1,44,46,48,50,52,54,56,58,60,62,64,66,68,70,72,74,76,78,80,82,84,86,88,90,92,94,-1,96,98,100,-1,-1,-1,-1,-1,-1,-1,-1,-1,-1,-1,-1,-1,-1,-1,-1,-1,-1,-1,-1,-1,-1,-1,-1,-1,-1,-1,-1,-1,-1,-1,-1,-1,-1,-1,-1,-1,-1,-1,-1,-1,-1,-1,-1,-1,-1],"split_conditions":[1E0,1E0,1E0,1E0,1E0,1E0,1E0,1E0,1E0,3.154535E2,1E0,1E0,2.807E1,2.5835E2,1.6243093E-2,1E0,4.6055838E-1,2.807E1,1.4640627E-2,-1.3724265E-1,9.1176355E2,-3.458757E-3,-2.8490662E-3,2.932E1,5.012883E-3,1E0,1E0,1E0,1E0,2E0,-1.1109207E0,1E0,1E0,-1.3341305E0,-3.4437767E-1,4E0,1E0,1.4032415E0,1.116E1,3.309859E-1,1E0,-1.1109207E0,1E0,-5.395499E-1,7E0,-6.386169E-1,-2.689186E-1,-4.9453577E-1,1E0,4.329518E-1,1E0,5.3395913E-3,1.2E1,4.558E2,1E0,-3.7149123E-3,-1.1581919E-3,-2.9911378E-3,9.6556847E-4,-1.8329371E-3,-3.1284406E-3,-1.0460122E-3,-2.4299754E-3,3.884474E-3,-1.3237316E-3,-2.491594E-3,3.2022595E-3,1.0358352E-3,5.3206338E-3,-5.8148387E-3,8.078506E-3,8.2762344E-5,3.909872E-3,-5.293162E-4,-2.8348216E-3,3.0425685E-3,2.8350882E-4,7.442748E-5,-9.517211E-4,2.6397586E-3,-1.4849134E-3,-6.472522E-4,-2.103008E-3,-6.9544284E-4,-2.5446417E-3,-1.0471063E-3,1.09670604E-4,5.348665E-4,7.363033E-3,1.2176264E-2,1.8766882E-2,4.9285945E-3,2.9616207E-3,8.881525E-3,4.3109586E-3,1.9327734E-2,1.112486E-2,3.916554E-3,1.4372259E-2,1.0298226E-2,5.018593E-3],"split_indices":[28,35,79,30,27,20,16,24,5,2,7,13,2,2,84,69,83,2,0,84,2,0,0,2,0,53,51,15,15,1,83,5,37,83,84,1,40,83,2,84,7,83,21,84,1,84,84,84,22,83,23,0,1,2,21,0,0,0,0,0,0,0,0,0,0,0,0,0,0,0,0,0,0,0,0,0,0,0,0,0,0,0,0,0,0,0,0,0,0,0,0,0,0,0,0,0,0,0,0,0,0],"split_type":[0,0,0,0,0,0,0,0,0,0,0,0,0,0,0,0,0,0,0,0,0,0,0,0,0,0,0,0,0,0,0,0,0,0,0,0,0,0,0,0,0,0,0,0,0,0,0,0,0,0,0,0,0,0,0,0,0,0,0,0,0,0,0,0,0,0,0,0,0,0,0,0,0,0,0,0,0,0,0,0,0,0,0,0,0,0,0,0,0,0,0,0,0,0,0,0,0,0,0,0,0],"sum_hessian":[4.255E3,2.805E3,1.45E3,2.408E3,3.97E2,4.93E2,9.57E2,1.73E3,6.78E2,2.76E2,1.21E2,3.04E2,1.89E2,8.25E2,1.32E2,1.431E3,2.99E2,6.77E2,1E0,1.48E2,1.28E2,4.8E1,7.3E1,2.94E2,1E1,5E1,1.39E2,1.97E2,6.28E2,3.9E1,9.3E1,9.2E2,5.11E2,2.03E2,9.6E1,3.1E1,6.46E2,1.08E2,4E1,1.03E2,2.5E1,7.2E1,2.22E2,1.9E1,3.1E1,1.11E2,2.8E1,4.9E1,1.48E2,4.28E2,2E2,1E0,3.8E1,2.7E1,6.6E1,9.1E2,1E1,4.94E2,1.7E1,6.5E1,1.38E2,5.8E1,3.8E1,9E0,2.2E1,6.43E2,3E0,6.8E1,4E1,1E0,3.9E1,8.9E1,1.4E1,7E0,1.8E1,2.3E1,4.9E1,1.14E2,1.08E2,1.4E1,5E0,1.9E1,1.2E1,1E1,1.01E2,2.1E1,7E0,7E0,4.2E1,1.31E2,1.7E1,2.31E2,1.97E2,1.15E2,8.5E1,3.3E1,5E0,1E0,2.6E1,6.3E1,3E0],"tree_param":{"num_deleted":"0","num_feature":"85","num_nodes":"101","size_leaf_vector":"1"}},{"base_weights":[1.8545965E-4,-2.82679E-2,5.520954E-2,-3.4019966E-2,6.6190152E-3,-5.858303E-3,8.664201E-2,-3.0943798E-2,-4.2057563E-2,2.532217E-2,-3.59006E-2,-1.2037786E-2,9.393698E-3,7.520951E-2,1.5699238E-1,-3.3076018E-2,-2.1930823E-2,-3.6311198E-3,-3.8710117E-2,9.922343E-2,1.7271748E-2,-3.1877034E-3,-2.6242211E-3,6.896854E-2,-1.340378E-2,2.8054778E-2,-7.899746E-3,1.5625823E-1,6.2277142E-2,1.6966725E-2,1.3187897E-1,-3.496261E-2,-2.0154614E-2,6.8614874E-3,-2.7449006E-2,-4.3309722E-2,-3.4432076E-2,-4.928201E-3,1.4810716E-1,3.449247E-2,7.1809976E-4,1.908151E-3,6.845111E-3,-9.978026E-3,-2.5694806E-2,3.648322E-2,1.3592636E-2,5.5528775E-2,-1.5245752E-2,1.991951E-1,1.1501072E-1,1.3054442E-1,5.660587E-2,1.6324843E-1,9.3440795E-3,-2.8356486E-3,1.3580372E-3,-1.8758683E-3,8.926147E-4,-9.437353E-4,4.9876734E-3,-1.208798E-3,-2.316953E-3,-3.6244264E-3,-2.243066E-3,-2.4952865E-3,-3.1449192E-3,9.634543E-3,1.7006554E-2,5.062772E-4,5.5358685E-3,1.5256142E-3,-8.314112E-4,-3.2858868E-4,-1.8331393E-3,-1.3934555E-3,-2.7341836E-3,-1.4792976E-3,3.1692726E-3,3.496317E-4,1.572782E-3,2.370417E-3,5.211349E-3,-1.8607588E-3,3.3218934E-5,2.7250843E-3,1.6133446E-2,1.1059812E-2,6.832326E-3,8.6762095E-3,1.3014227E-2,9.767471E-3,4.219951E-3,1.3733844E-2,7.2128423E-3],"categories":[],"categories_nodes":[],"categories_segments":[],"categories_sizes":[],"default_left":[0,0,0,0,0,0,0,0,0,0,0,0,0,0,0,0,0,0,0,0,0,0,0,0,0,0,0,0,0,0,0,0,0,0,0,0,0,0,0,0,0,0,0,0,0,0,0,0,0,0,0,0,0,0,0,0,0,0,0,0,0,0,0,0,0,0,0,0,0,0,0,0,0,0,0,0,0,0,0,0,0,0,0,0,0,0,0,0,0,0,0,0,0,0,0],"id":7,"left_children":[1,3,5,7,9,11,13,15,17,19,21,23,25,27,29,31,33,-1,35,37,39,-1,-1,41,43,45,47,49,51,-1,53,55,57,59,61,63,65,-1,67,69,71,-1,-1,73,75,77,79,81,83,85,87,89,91,93,-1,-1,-1,-1,-1,-1,-1,-1,-1,-1,-1,-1,-1,-1,-1,-1,-1,-1,-1,-1,-1,-1,-1,-1,-1,-1,-1,-1,-1,-1,-1,-1,-1,-1,-1,-1,-1,-1,-1,-1,-1],"loss_changes":[6.6648393E0,5.633104E-1,2.7857208E0,5.8260918E-2,3.1741893E-1,4.667232E-2,7.586932E-1,3.282869E-2,5.6478977E-3,1.6308363E-1,1.8414855E-4,3.987472E-2,4.6369776E-2,8.560424E-1,1.5604115E-1,3.3667445E-2,5.3731337E-2,0E0,5.159676E-3,2.2139159E-1,7.152673E-2,0E0,0E0,2.4515018E-3,1.4354408E-2,7.914737E-3,3.5792552E-2,1.7721748E-1,2.690444E-1,0E0,2.5393367E-2,3.143251E-2,1.9032106E-2,5.767359E-2,4.845366E-3,3.575325E-3,1.6203821E-3,0E0,1.1869997E-2,1.1978926E-1,2.650196E-2,0E0,0E0,2.0638661E-2,4.670158E-3,8.137904E-3,1.4248001E-3,6.1554834E-5,8.543864E-3,1.5182734E-2,2.9471219E-2,2.0690978E-2,1.60496E-1,1.762569E-3,0E0,0E0,0E0,0E0,0E0,0E0,0E0,0E0,0E0,0E0,0E0,0E0,0E0,0E0,0E0,0E0,0E0,0E0,0E0,0E0,0E0,0E0,0E0,0E0,0E0,0E0,0E0,0E0,0E0,0E0,0E0,0E0,0E0,0E0,0E0,0E0,0E0,0E0,0E0,0E0,0E0],"parents":[2147483647,0,0,1,1,2,2,3,3,4,4,5,5,6,6,7,7,8,8,9,9,10,10,11,11,12,12,13,13,14,14,15,15,16,16,18,18,19,19,20,20,23,23,24,24,25,25,26,26,27,27,28,28,30,30,31,31,32,32,33,33,34,34,35,35,36,36,38,38,39,39,40,40,43,43,44,44,45,45,46,46,47,47,48,48,49,49,50,50,51,51,52,52,53,53],"right_children":[2,4,6,8,10,12,14,16,18,20,22,24,26,28,30,32,34,-1,36,38,40,-1,-1,42,44,46,48,50,52,-1,54,56,58,60,62,64,66,-1,68,70,72,-1,-1,74,76,78,80,82,84,86,88,90,92,94,-1,-1,-1,-1,-1,-1,-1,-1,-1,-1,-1,-1,-1,-1,-1,-1,-1,-1,-1,-1,-1,-1,-1,-1,-1,-1,-1,-1,-1,-1,-1,-1,-1,-1,-1,-1,-1,-1,-1,-1,-1],"split_conditions":[1E0,1E0,1E0,1E0,1E0,1E0,1E0,1E0,1E0,6.039E1,1E0,-7.166058E-1,1.0332412E-1,-4.080953E-1,1.6243093E-2,1E0,-1.5745944E0,-3.6311198E-3,1E0,-5.452924E-1,3.154535E2,-3.1877034E-3,-2.6242211E-3,1E0,1E0,1E0,-5.80013E-1,9.510408E-2,1.6187999E2,1.6966725E-2,-1.1109207E0,1E0,1E0,-1.584072E0,1E0,1E0,1E0,-4.928201E-3,-1.0206581E-1,1.8388167E2,2.2744538E-2,1.908151E-3,6.845111E-3,1E0,1E0,1.895862E0,5E0,1.2E1,1E0,1E0,-5.337899E-1,-2.0419484E-1,-1.791328E0,3.81901E3,9.3440795E-3,-2.8356486E-3,1.3580372E-3,-1.8758683E-3,8.926147E-4,-9.437353E-4,4.9876734E-3,-1.208798E-3,-2.316953E-3,-3.6244264E-3,-2.243066E-3,-2.4952865E-3,-3.1449192E-3,9.634543E-3,1.7006554E-2,5.062772E-4,5.5358685E-3,1.5256142E-3,-8.314112E-4,-3.2858868E-4,-1.8331393E-3,-1.3934555E-3,-2.7341836E-3,-1.4792976E-3,3.1692726E-3,3.496317E-4,1.572782E-3,2.370417E-3,5.211349E-3,-1.8607588E-3,3.3218934E-5,2.7250843E-3,1.6133446E-2,1.1059812E-2,6.832326E-3,8.6762095E-3,1.3014227E-2,9.767471E-3,4.219951E-3,1.3733844E-2,7.2128423E-3],"split_indices":[28,35,79,36,27,22,16,76,22,2,7,84,83,84,84,69,83,0,69,84,2,0,0,13,14,14,84,83,2,0,83,5,37,83,15,9,42,0,84,2,84,0,0,58,20,2,1,1,3,15,84,84,83,2,0,0,0,0,0,0,0,0,0,0,0,0,0,0,0,0,0,0,0,0,0,0,0,0,0,0,0,0,0,0,0,0,0,0,0,0,0,0,0,0,0],"split_type":[0,0,0,0,0,0,0,0,0,0,0,0,0,0,0,0,0,0,0,0,0,0,0,0,0,0,0,0,0,0,0,0,0,0,0,0,0,0,0,0,0,0,0,0,0,0,0,0,0,0,0,0,0,0,0,0,0,0,0,0,0,0,0,0,0,0,0,0,0,0,0,0,0,0,0,0,0,0,0,0,0,0,0,0,0,0,0,0,0,0,0,0,0,0,0],"sum_hessian":[4.255E3,2.805E3,1.45E3,2.408E3,3.97E2,4.93E2,9.57E2,1.745E3,6.63E2,2.76E2,1.21E2,3.51E2,1.42E2,8.25E2,1.32E2,1.409E3,3.36E2,3.26E2,3.37E2,2.6E1,2.5E2,4.8E1,7.3E1,5E0,3.46E2,6.8E1,7.4E1,1.12E2,7.13E2,3.9E1,9.3E1,1.228E3,1.81E2,5.4E1,2.82E2,1.58E2,1.79E2,6E0,2E1,1.22E2,1.28E2,2E0,3E0,2.72E2,7.4E1,4.2E1,2.6E1,7E0,6.7E1,5.3E1,5.9E1,5.3E1,6.6E2,2.7E1,6.6E1,1.217E3,1.1E1,1.64E2,1.7E1,4.1E1,1.3E1,3.2E1,2.5E2,1.38E2,2E1,1.12E2,6.7E1,1.6E1,4E0,6.8E1,5.4E1,4.8E1,8E1,1.88E2,8.4E1,3.9E1,3.5E1,2E0,4E1,1.1E1,1.5E1,3E0,4E0,4.4E1,2.3E1,1E0,5.2E1,3.1E1,2.8E1,3.4E1,1.9E1,3.5E1,6.25E2,2.3E1,4E0],"tree_param":{"num_deleted":"0","num_feature":"85","num_nodes":"95","size_leaf_vector":"1"}},{"base_weights":[2.0283001E-4,-2.6004488E-2,5.0883416E-2,-3.130546E-2,6.1463723E-3,-5.365692E-3,7.983558E-2,-2.8469406E-2,-3.8715757E-2,2.3399102E-2,-3.307619E-2,1.9543797E-3,-1.7088093E-2,6.928044E-2,1.447883E-1,-3.043168E-2,-2.017482E-2,-4.0076226E-2,-3.2012742E-2,9.2089735E-2,1.5916847E-2,-1.0025922E-3,-3.331415E-2,-4.9172646E-5,4.440667E-3,-1.971765E-2,1.4904589E-2,1.4408278E-1,5.7344943E-2,1.955415E-1,1.2165088E-1,-3.21668E-2,-1.8547647E-2,6.3860943E-3,-2.5265547E-2,6.0788717E-4,-4.0177274E-2,-2.8967054E-3,-2.8987586E-2,-4.5902673E-3,1.3752721E-1,2.4561921E-2,-1.2012675E-2,-2.6749556E-3,-7.480529E-4,8.720489E-3,-7.0114546E-3,3.976673E-3,-2.0801332E-2,4.4042403E-3,-4.6996544E-3,1.8360873E-1,1.0610807E-1,4.3770507E-2,8.2057714E-2,2.036501E-1,9.252086E-3,1.5093666E-1,1.0759637E-1,-2.6089828E-3,1.2584478E-3,-1.726708E-3,8.251725E-4,-4.866138E-4,6.432035E-3,-1.8482155E-3,-2.7543458E-3,-3.4004413E-3,-3.003142E-3,-2.4830482E-3,-1.450329E-3,8.909119E-3,1.5918134E-2,9.220557E-4,3.2396642E-3,2.1553992E-3,-3.5761218E-3,-2.0509976E-4,1.9487891E-3,6.6731084E-4,-1.0705079E-3,-1.9146564E-3,-4.9245806E-4,2.027415E-4,-7.3562906E-4,2.6160812E-3,1.4867123E-2,-6.839653E-4,8.816735E-3,1.2815152E-2,3.3513205E-3,1.2814999E-2,5.7888427E-3,4.4473386E-3,1.6509576E-2,3.2105385E-3,1.2284335E-2,8.751394E-3,4.156832E-3],"categories":[],"categories_nodes":[],"categories_segments":[],"categories_sizes":[],"default_left":[0,0,0,0,0,0,0,0,0,0,0,0,0,0,0,0,0,0,0,0,0,0,0,0,0,0,0,0,0,0,0,0,0,0,0,0,0,0,0,0,0,0,0,0,0,0,0,0,0,0,0,0,0,0,0,0,0,0,0,0,0,0,0,0,0,0,0,0,0,0,0,0,0,0,0,0,0,0,0,0,0,0,0,0,0,0,0,0,0,0,0,0,0,0,0,0,0,0,0],"id":8,"left_children":[1,3,5,7,9,11,13,15,17,19,21,23,25,27,29,31,33,35,37,39,41,-1,43,45,-1,47,49,51,53,55,57,59,61,63,65,-1,67,-1,69,-1,71,73,75,-1,-1,77,79,-1,81,-1,83,85,87,89,91,93,-1,95,97,-1,-1,-1,-1,-1,-1,-1,-1,-1,-1,-1,-1,-1,-1,-1,-1,-1,-1,-1,-1,-1,-1,-1,-1,-1,-1,-1,-1,-1,-1,-1,-1,-1,-1,-1,-1,-1,-1,-1,-1],"loss_changes":[5.654152E0,4.784211E-1,2.3634303E0,4.95255E-2,2.7009907E-1,4.2422947E-2,6.4676E-1,2.7804255E-2,4.7723055E-3,1.4090142E-1,1.7890334E-4,3.272867E-2,1.6277943E-2,7.29193E-1,1.3239384E-1,2.8477907E-2,4.572858E-2,2.9451847E-3,4.355684E-4,1.9126025E-1,6.0899712E-2,0E0,4.0456653E-5,1.8072916E-2,0E0,1.4275484E-2,1.2064921E-2,1.5012908E-1,2.359283E-1,2.359748E-3,2.2449851E-2,2.6736856E-2,1.6171634E-2,5.124677E-2,4.8136264E-3,0E0,1.7639399E-3,0E0,1.0626912E-3,0E0,1.1603177E-2,3.941504E-2,7.760834E-2,0E0,0E0,2.3181126E-2,1.6247958E-2,0E0,7.833742E-3,0E0,3.8104126E-4,1.2097836E-2,2.9155731E-2,9.457111E-2,1.7933345E-1,2.6205778E-3,0E0,1.9586086E-3,1.0108948E-3,0E0,0E0,0E0,0E0,0E0,0E0,0E0,0E0,0E0,0E0,0E0,0E0,0E0,0E0,0E0,0E0,0E0,0E0,0E0,0E0,0E0,0E0,0E0,0E0,0E0,0E0,0E0,0E0,0E0,0E0,0E0,0E0,0E0,0E0,0E0,0E0,0E0,0E0,0E0,0E0],"parents":[2147483647,0,0,1,1,2,2,3,3,4,4,5,5,6,6,7,7,8,8,9,9,10,10,11,11,12,12,13,13,14,14,15,15,16,16,17,17,18,18,19,19,20,20,22,22,23,23,25,25,26,26,27,27,28,28,29,29,30,30,31,31,32,32,33,33,34,34,36,36,38,38,40,40,41,41,42,42,45,45,46,46,48,48,50,50,51,51,52,52,53,53,54,54,55,55,57,57,58,58],"right_children":[2,4,6,8,10,12,14,16,18,20,22,24,26,28,30,32,34,36,38,40,42,-1,44,46,-1,48,50,52,54,56,58,60,62,64,66,-1,68,-1,70,-1,72,74,76,-1,-1,78,80,-1,82,-1,84,86,88,90,92,94,-1,96,98,-1,-1,-1,-1,-1,-1,-1,-1,-1,-1,-1,-1,-1,-1,-1,-1,-1,-1,-1,-1,-1,-1,-1,-1,-1,-1,-1,-1,-1,-1,-1,-1,-1,-1,-1,-1,-1,-1,-1,-1],"split_conditions":[1E0,1E0,1E0,1E0,1E0,1E0,1E0,1E0,1E0,6.039E1,-5.452924E-1,1E0,1E0,-4.080953E-1,1.6243093E-2,1E0,-1.5745944E0,1.895862E0,1E0,-5.452924E-1,1.5176557E-1,-1.0025922E-3,2.8360503E3,-6.1674684E-1,4.440667E-3,-7.166058E-1,-5.8437675E-1,9.510408E-2,1E0,1.2E1,-1.1109207E0,1E0,1E0,-1.5813872E0,1.1944848E0,6.0788717E-4,1E0,-2.8967054E-3,1E0,-4.5902673E-3,-1.0206581E-1,-1.3724265E-1,1E0,-2.6749556E-3,-7.480529E-4,1E0,-5.80013E-1,3.976673E-3,1E0,4.4042403E-3,7E0,1E0,9.872003E-2,8.977E1,-1.5770341E0,2E0,9.252086E-3,4.558E2,1E0,-2.6089828E-3,1.2584478E-3,-1.726708E-3,8.251725E-4,-4.866138E-4,6.432035E-3,-1.8482155E-3,-2.7543458E-3,-3.4004413E-3,-3.003142E-3,-2.4830482E-3,-1.450329E-3,8.909119E-3,1.5918134E-2,9.220557E-4,3.2396642E-3,2.1553992E-3,-3.5761218E-3,-2.0509976E-4,1.9487891E-3,6.6731084E-4,-1.0705079E-3,-1.9146564E-3,-4.9245806E-4,2.027415E-4,-7.3562906E-4,2.6160812E-3,1.4867123E-2,-6.839653E-4,8.816735E-3,1.2815152E-2,3.3513205E-3,1.2814999E-2,5.7888427E-3,4.4473386E-3,1.6509576E-2,3.2105385E-3,1.2284335E-2,8.751394E-3,4.156832E-3],"split_indices":[28,35,79,36,27,20,16,76,6,2,84,13,5,84,84,69,83,2,22,84,84,0,2,83,0,84,84,83,15,1,83,5,37,83,83,0,22,0,47,0,84,84,7,0,0,22,84,0,15,0,1,15,83,2,83,1,0,2,21,0,0,0,0,0,0,0,0,0,0,0,0,0,0,0,0,0,0,0,0,0,0,0,0,0,0,0,0,0,0,0,0,0,0,0,0,0,0,0,0],"split_type":[0,0,0,0,0,0,0,0,0,0,0,0,0,0,0,0,0,0,0,0,0,0,0,0,0,0,0,0,0,0,0,0,0,0,0,0,0,0,0,0,0,0,0,0,0,0,0,0,0,0,0,0,0,0,0,0,0,0,0,0,0,0,0,0,0,0,0,0,0,0,0,0,0,0,0,0,0,0,0,0,0,0,0,0,0,0,0,0,0,0,0,0,0,0,0,0,0,0,0],"sum_hessian":[4.255E3,2.805E3,1.45E3,2.408E3,3.97E2,4.93E2,9.57E2,1.745E3,6.63E2,2.76E2,1.21E2,3.04E2,1.89E2,8.25E2,1.32E2,1.409E3,3.36E2,5.47E2,1.16E2,2.6E1,2.5E2,2E0,1.19E2,2.94E2,1E1,1.75E2,1.4E1,1.12E2,7.13E2,3.9E1,9.3E1,1.228E3,1.81E2,5.4E1,2.82E2,1E0,5.46E2,4.4E1,7.2E1,6E0,2E1,1.91E2,5.9E1,1.18E2,1E0,1.3E2,1.64E2,2E0,1.73E2,4E0,1E1,5.3E1,5.9E1,4.62E2,2.51E2,3.4E1,5E0,2.7E1,6.6E1,1.217E3,1.1E1,1.64E2,1.7E1,4.7E1,7E0,2.31E2,5.1E1,2.82E2,2.64E2,5.9E1,1.3E1,1.6E1,4E0,1.06E2,8.5E1,2.7E1,3.2E1,7.6E1,5.4E1,4.8E1,1.16E2,1.42E2,3.1E1,4E0,6E0,1E0,5.2E1,2E0,5.7E1,6E0,4.56E2,2.6E1,2.25E2,1E0,3.3E1,1E0,2.6E1,6.3E1,3E0],"tree_param":{"num_deleted":"0","num_feature":"85","num_nodes":"99","size_leaf_vector":"1"}},{"base_weights":[2.1837927E-4,-2.3922341E-2,4.690249E-2,-2.880664E-2,5.701277E-3,-4.9137194E-3,7.357295E-2,-3.1500645E-2,-2.1896292E-2,2.1610128E-2,-3.046637E-2,1.8169836E-3,-1.5692407E-2,6.381111E-2,1.3364592E-1,-3.3475645E-2,-2.1968294E-2,-2.244298E-2,1.3950343E-2,8.547208E-2,1.4654419E-2,-2.7282622E-3,-2.7646437E-2,-4.069525E-5,4.1177096E-3,-1.813132E-2,1.3970311E-2,1.3278286E-1,5.2806046E-2,1.8065341E-1,1.1222097E-1,-3.6613837E-2,-2.77652E-2,-2.6431393E-2,-1.3905146E-2,6.569546E-3,-2.3843223E-2,-4.275506E-3,1.2770727E-1,3.0208154E-2,-2.8948547E-4,-2.5069484E-2,-3.1970527E-2,1.1671899E-2,-4.604567E-3,3.2494117E-2,-1.9497573E-2,4.122369E-3,-4.372129E-3,1.6924378E-1,9.775497E-2,1.1375604E-1,4.774688E-2,3.8640068E-3,1.8280862E-1,1.3941512E-1,9.9181324E-2,-3.0497822E-3,-2.4046313E-3,-2.3252394E-3,7.6282606E-4,-1.2729495E-3,-2.5352086E-3,-5.355618E-4,-1.7579357E-3,3.7077765E-3,-8.8085775E-4,-1.937069E-3,3.3368021E-3,8.238315E-3,1.4899374E-2,3.66796E-4,4.944351E-3,3.9518878E-4,-2.4659708E-3,-2.0764885E-3,-1.7852058E-4,-8.1622944E-4,-2.7675473E-3,2.3392362E-3,6.0119933E-6,2.6960208E-5,-8.6911744E-4,4.0060906E-3,-1.5133583E-3,-1.79964E-3,-4.5429237E-4,1.897658E-4,-6.851861E-4,2.511438E-3,1.3700194E-2,9.5668845E-3,5.6235706E-3,7.521257E-3,1.1409105E-2,3.0396413E-3,5.4128477E-3,1.5251506E-2,8.635282E-3,1.1769364E-2,5.965023E-3,8.062222E-3,3.9074225E-3],"categories":[],"categories_nodes":[],"categories_segments":[],"categories_sizes":[],"default_left":[0,0,0,0,0,0,0,0,0,0,0,0,0,0,0,0,0,0,0,0,0,0,0,0,0,0,0,0,0,0,0,0,0,0,0,0,0,0,0,0,0,0,0,0,0,0,0,0,0,0,0,0,0,0,0,0,0,0,0,0,0,0,0,0,0,0,0,0,0,0,0,0,0,0,0,0,0,0,0,0,0,0,0,0,0,0,0,0,0,0,0,0,0,0,0,0,0,0,0,0,0,0,0],"id":9,"left_children":[1,3,5,7,9,11,13,15,17,19,21,23,25,27,29,31,33,35,-1,37,39,-1,41,43,-1,45,47,49,51,53,55,57,59,61,63,65,67,-1,69,71,73,75,77,79,81,83,85,-1,87,89,91,93,95,-1,97,99,101,-1,-1,-1,-1,-1,-1,-1,-1,-1,-1,-1,-1,-1,-1,-1,-1,-1,-1,-1,-1,-1,-1,-1,-1,-1,-1,-1,-1,-1,-1,-1,-1,-1,-1,-1,-1,-1,-1,-1,-1,-1,-1,-1,-1,-1,-1],"loss_changes":[4.7975826E0,4.061662E-1,2.0055892E0,4.4157267E-2,2.2966188E-1,3.5867296E-2,5.532651E-1,3.18532E-2,7.677138E-2,1.2179227E-1,3.0837953E-4,2.8135872E-2,1.3998799E-2,6.199539E-1,1.13675594E-1,2.4645567E-2,1.0428444E-2,2.7700126E-2,0E0,1.6523798E-1,5.834956E-2,0E0,2.308935E-5,1.5822902E-2,0E0,1.2807E-2,1.0559234E-2,1.277734E-1,2.147348E-1,2.580285E-3,1.9505262E-2,7.962108E-3,2.5109917E-2,1.0117039E-2,6.194828E-3,2.288798E-2,1.6708642E-2,0E0,1.1217862E-2,9.929703E-2,2.075084E-2,9.7475946E-4,1.0177828E-3,1.6908068E-2,6.5920204E-3,5.4668435E-3,6.9978833E-3,0E0,3.3135674E-4,9.575963E-3,2.7563095E-2,1.7353773E-2,1.2578607E-1,0E0,2.2993088E-3,3.0162334E-3,4.619956E-4,0E0,0E0,0E0,0E0,0E0,0E0,0E0,0E0,0E0,0E0,0E0,0E0,0E0,0E0,0E0,0E0,0E0,0E0,0E0,0E0,0E0,0E0,0E0,0E0,0E0,0E0,0E0,0E0,0E0,0E0,0E0,0E0,0E0,0E0,0E0,0E0,0E0,0E0,0E0,0E0,0E0,0E0,0E0,0E0,0E0,0E0],"parents":[2147483647,0,0,1,1,2,2,3,3,4,4,5,5,6,6,7,7,8,8,9,9,10,10,11,11,12,12,13,13,14,14,15,15,16,16,17,17,19,19,20,20,22,22,23,23,25,25,26,26,27,27,28,28,29,29,30,30,31,31,32,32,33,33,34,34,35,35,36,36,38,38,39,39,40,40,41,41,42,42,43,43,44,44,45,45,46,46,48,48,49,49,50,50,51,51,52,52,54,54,55,55,56,56],"right_children":[2,4,6,8,10,12,14,16,18,20,22,24,26,28,30,32,34,36,-1,38,40,-1,42,44,-1,46,48,50,52,54,56,58,60,62,64,66,68,-1,70,72,74,76,78,80,82,84,86,-1,88,90,92,94,96,-1,98,100,102,-1,-1,-1,-1,-1,-1,-1,-1,-1,-1,-1,-1,-1,-1,-1,-1,-1,-1,-1,-1,-1,-1,-1,-1,-1,-1,-1,-1,-1,-1,-1,-1,-1,-1,-1,-1,-1,-1,-1,-1,-1,-1,-1,-1,-1,-1],"split_conditions":[1E0,1E0,1E0,1E0,1E0,1E0,1E0,1E0,1E0,6.039E1,1E0,1E0,1E0,-4.080953E-1,1.6243093E-2,1E0,2.4119769E-1,2.807E1,1.3950343E-2,-5.452924E-1,3.154535E2,-2.7282622E-3,1.2086757E0,3.2497757E1,4.1177096E-3,-7.0735586E-1,-5.8437675E-1,9.510408E-2,1.6187999E2,-6.553091E-1,-1.1109207E0,1E0,1E0,-1.3341305E0,-3.4437767E-1,4E0,1E0,-4.275506E-3,-1.0206581E-1,1.8388167E2,1.1827255E0,1.2011129E0,9.916E1,-1.1104814E0,6.824616E-1,1.33E1,1E0,4.122369E-3,7E0,1E0,-5.337899E-1,-2.0419484E-1,1E0,3.8640068E-3,1.2E1,3.81901E3,1E0,-3.0497822E-3,-2.4046313E-3,-2.3252394E-3,7.6282606E-4,-1.2729495E-3,-2.5352086E-3,-5.355618E-4,-1.7579357E-3,3.7077765E-3,-8.8085775E-4,-1.937069E-3,3.3368021E-3,8.238315E-3,1.4899374E-2,3.66796E-4,4.944351E-3,3.9518878E-4,-2.4659708E-3,-2.0764885E-3,-1.7852058E-4,-8.1622944E-4,-2.7675473E-3,2.3392362E-3,6.0119933E-6,2.6960208E-5,-8.6911744E-4,4.0060906E-3,-1.5133583E-3,-1.79964E-3,-4.5429237E-4,1.897658E-4,-6.851861E-4,2.511438E-3,1.3700194E-2,9.5668845E-3,5.6235706E-3,7.521257E-3,1.1409105E-2,3.0396413E-3,5.4128477E-3,1.5251506E-2,8.635282E-3,1.1769364E-2,5.965023E-3,8.062222E-3,3.9074225E-3],"split_indices":[28,35,79,30,27,20,16,24,5,2,7,13,5,84,84,69,83,2,0,84,2,0,83,2,0,84,84,83,2,84,83,65,37,83,84,1,40,0,84,2,83,83,2,83,83,2,15,0,1,15,84,84,15,0,1,2,21,0,0,0,0,0,0,0,0,0,0,0,0,0,0,0,0,0,0,0,0,0,0,0,0,0,0,0,0,0,0,0,0,0,0,0,0,0,0,0,0,0,0,0,0,0,0],"split_type":[0,0,0,0,0,0,0,0,0,0,0,0,0,0,0,0,0,0,0,0,0,0,0,0,0,0,0,0,0,0,0,0,0,0,0,0,0,0,0,0,0,0,0,0,0,0,0,0,0,0,0,0,0,0,0,0,0,0,0,0,0,0,0,0,0,0,0,0,0,0,0,0,0,0,0,0,0,0,0,0,0,0,0,0,0,0,0,0,0,0,0,0,0,0,0,0,0,0,0,0,0,0,0],"sum_hessian":[4.255E3,2.805E3,1.45E3,2.408E3,3.97E2,4.93E2,9.57E2,1.73E3,6.78E2,2.76E2,1.21E2,3.04E2,1.89E2,8.25E2,1.32E2,1.431E3,2.99E2,6.77E2,1E0,2.6E1,2.5E2,4.8E1,7.3E1,2.94E2,1E1,1.75E2,1.4E1,1.12E2,7.13E2,3.9E1,9.3E1,9.2E2,5.11E2,1.91E2,1.08E2,3.1E1,6.46E2,6E0,2E1,1.22E2,1.28E2,5E1,2.3E1,8.2E1,2.12E2,4E0,1.71E2,4E0,1E1,5.3E1,5.9E1,5.3E1,6.6E2,1E0,3.8E1,2.7E1,6.6E1,7.44E2,1.76E2,4.94E2,1.7E1,6.5E1,1.26E2,5.8E1,5E1,9E0,2.2E1,6.43E2,3E0,1.6E1,4E0,6.8E1,5.4E1,1.1E2,1.8E1,4.8E1,2E0,3E0,2E1,3.2E1,5E1,1.19E2,9.3E1,3E0,1E0,1.4E2,3.1E1,4E0,6E0,1E0,5.2E1,3.1E1,2.8E1,3.4E1,1.9E1,4.45E2,2.15E2,3.3E1,5E0,2.3E1,4E0,6.3E1,3E0],"tree_param":{"num_deleted":"0","num_feature":"85","num_nodes":"103","size_leaf_vector":"1"}},{"base_weights":[2.348187E-4,-2.2001926E-2,4.3236934E-2,-2.6500009E-2,5.2791834E-3,-4.501419E-3,6.780845E-2,-2.4011616E-2,-3.300337E-2,1.996111E-2,-2.8099282E-2,-9.646129E-3,8.19396E-3,5.8777392E-2,1.23386234E-1,-2.5714895E-2,-1.6813891E-2,-2.8615843E-3,-3.0229326E-2,7.933291E-2,1.3494976E-2,-2.514456E-3,-2.5513625E-2,5.9283998E-2,-1.0810206E-2,-5.797937E-3,2.2868337E-2,1.22438125E-1,4.861991E-2,1.668949E-1,1.0355929E-1,-2.7269633E-2,-1.5074845E-2,6.961453E-3,-2.1375127E-2,-2.8080678E-2,-2.9359974E-3,-3.9823283E-3,1.1859249E-1,2.3058373E-2,-7.2350157E-3,-2.3108143E-2,-2.9562209E-2,1.575554E-3,5.9324144E-3,-7.7484716E-3,-2.1810783E-2,3.997446E-2,-1.4424458E-2,3.0200675E-2,1.0791236E-2,1.560045E-1,9.018775E-2,6.555125E-2,3.2877788E-2,3.6593848E-3,1.688285E-1,1.2889527E-1,9.142546E-2,-2.4442694E-3,-1.7197682E-3,-1.4071707E-3,7.051901E-4,-2.8067604E-3,2.1355809E-3,-1.4755977E-3,-2.2298198E-3,-1.9133139E-3,-2.591031E-3,7.6180184E-3,1.3945814E-2,7.395088E-4,3.6084207E-3,2.0239146E-3,-2.865415E-3,-8.741943E-4,-2.0096155E-3,-1.3019711E-3,-2.7260983E-3,-2.1689115E-4,-1.5086374E-3,-1.2622457E-3,-2.2326352E-3,4.1593593E-3,1.0201213E-3,-7.3929876E-4,-2.552452E-3,4.1922973E-3,1.6744611E-3,1.791034E-4,1.295478E-3,2.4109804E-3,1.2624858E-2,-1.1577213E-3,7.5236955E-3,4.5774225E-3,1.8583234E-2,2.0648725E-3,4.4312985E-3,3.7094462E-3,1.3666474E-2,2.6113421E-3,1.05001E-2,7.427321E-3,3.672977E-3],"categories":[],"categories_nodes":[],"categories_segments":[],"categories_sizes":[],"default_left":[0,0,0,0,0,0,0,0,0,0,0,0,0,0,0,0,0,0,0,0,0,0,0,0,0,0,0,0,0,0,0,0,0,0,0,0,0,0,0,0,0,0,0,0,0,0,0,0,0,0,0,0,0,0,0,0,0,0,0,0,0,0,0,0,0,0,0,0,0,0,0,0,0,0,0,0,0,0,0,0,0,0,0,0,0,0,0,0,0,0,0,0,0,0,0,0,0,0,0,0,0,0,0,0,0],"id":10,"left_children":[1,3,5,7,9,11,13,15,17,19,21,23,25,27,29,31,33,-1,35,37,39,-1,41,43,45,47,49,51,53,55,57,59,61,63,65,67,-1,-1,69,71,73,75,77,-1,-1,79,81,83,85,87,89,91,93,95,97,-1,99,101,103,-1,-1,-1,-1,-1,-1,-1,-1,-1,-1,-1,-1,-1,-1,-1,-1,-1,-1,-1,-1,-1,-1,-1,-1,-1,-1,-1,-1,-1,-1,-1,-1,-1,-1,-1,-1,-1,-1,-1,-1,-1,-1,-1,-1,-1,-1],"loss_changes":[4.070654E0,3.444717E-1,1.7023335E0,3.8192153E-2,1.9560485E-1,3.2344177E-2,4.7359324E-1,2.0973086E-2,4.014373E-3,1.05271384E-1,2.489835E-4,2.8885342E-2,2.949369E-2,5.2816534E-1,9.744811E-2,2.2913873E-2,3.6694758E-2,0E0,3.6686957E-3,1.4276329E-1,4.9927365E-2,0E0,3.75472E-5,2.0720176E-3,1.1518247E-2,2.9795997E-2,5.8728307E-3,1.082561E-1,1.8815088E-1,1.6477108E-3,1.7113447E-2,2.2639453E-2,1.1089172E-2,4.6570398E-2,4.8739314E-3,3.8529634E-3,0E0,0E0,1.07476115E-2,5.1968575E-2,7.5298734E-2,9.7542256E-4,8.8495016E-4,0E0,0E0,1.5226563E-2,2.3183487E-3,3.2628532E-3,5.4135164E-3,7.7534206E-3,1.2574117E-3,7.5206757E-3,2.559033E-2,4.6331286E-1,5.775544E-2,0E0,1.6424656E-3,2.0653605E-3,5.5491924E-5,0E0,0E0,0E0,0E0,0E0,0E0,0E0,0E0,0E0,0E0,0E0,0E0,0E0,0E0,0E0,0E0,0E0,0E0,0E0,0E0,0E0,0E0,0E0,0E0,0E0,0E0,0E0,0E0,0E0,0E0,0E0,0E0,0E0,0E0,0E0,0E0,0E0,0E0,0E0,0E0,0E0,0E0,0E0,0E0,0E0,0E0],"parents":[2147483647,0,0,1,1,2,2,3,3,4,4,5,5,6,6,7,7,8,8,9,9,10,10,11,11,12,12,13,13,14,14,15,15,16,16,18,18,19,19,20,20,22,22,23,23,24,24,25,25,26,26,27,27,28,28,29,29,30,30,31,31,32,32,33,33,34,34,35,35,38,38,39,39,40,40,41,41,42,42,45,45,46,46,47,47,48,48,49,49,50,50,51,51,52,52,53,53,54,54,56,56,57,57,58,58],"right_children":[2,4,6,8,10,12,14,16,18,20,22,24,26,28,30,32,34,-1,36,38,40,-1,42,44,46,48,50,52,54,56,58,60,62,64,66,68,-1,-1,70,72,74,76,78,-1,-1,80,82,84,86,88,90,92,94,96,98,-1,100,102,104,-1,-1,-1,-1,-1,-1,-1,-1,-1,-1,-1,-1,-1,-1,-1,-1,-1,-1,-1,-1,-1,-1,-1,-1,-1,-1,-1,-1,-1,-1,-1,-1,-1,-1,-1,-1,-1,-1,-1,-1,-1,-1,-1,-1,-1,-1],"split_conditions":[1E0,1E0,1E0,1E0,1E0,1E0,1E0,1E0,1E0,6.039E1,1E0,-7.166058E-1,2.023E3,-4.080953E-1,1.6243093E-2,1E0,-1.5745944E0,-2.8615843E-3,1E0,-5.452924E-1,6.344892E-2,-2.514456E-3,1.2086757E0,1E0,1E0,-5.6316197E-1,1E0,9.510408E-2,7.6869696E2,2E0,-1.1109207E0,1E0,1E0,1E0,1E0,6.887062E-1,-2.9359974E-3,-3.9823283E-3,-1.0206581E-1,-1.3724265E-1,1E0,-1.1744081E-1,2.286197E2,1.575554E-3,5.9324144E-3,1E0,1E0,-5.80013E-1,1E0,5E0,5E0,1E0,9.872003E-2,1E0,1E0,3.6593848E-3,-6.553091E-1,4.558E2,1E0,-2.4442694E-3,-1.7197682E-3,-1.4071707E-3,7.051901E-4,-2.8067604E-3,2.1355809E-3,-1.4755977E-3,-2.2298198E-3,-1.9133139E-3,-2.591031E-3,7.6180184E-3,1.3945814E-2,7.395088E-4,3.6084207E-3,2.0239146E-3,-2.865415E-3,-8.741943E-4,-2.0096155E-3,-1.3019711E-3,-2.7260983E-3,-2.1689115E-4,-1.5086374E-3,-1.2622457E-3,-2.2326352E-3,4.1593593E-3,1.0201213E-3,-7.3929876E-4,-2.552452E-3,4.1922973E-3,1.6744611E-3,1.791034E-4,1.295478E-3,2.4109804E-3,1.2624858E-2,-1.1577213E-3,7.5236955E-3,4.5774225E-3,1.8583234E-2,2.0648725E-3,4.4312985E-3,3.7094462E-3,1.3666474E-2,2.6113421E-3,1.05001E-2,7.427321E-3,3.672977E-3],"split_indices":[28,35,79,36,27,22,16,76,22,2,7,84,0,84,84,69,83,0,71,84,84,0,83,13,14,84,14,83,2,1,83,24,37,42,21,83,0,0,84,84,7,84,2,0,0,58,20,84,15,1,1,15,83,22,21,0,84,2,21,0,0,0,0,0,0,0,0,0,0,0,0,0,0,0,0,0,0,0,0,0,0,0,0,0,0,0,0,0,0,0,0,0,0,0,0,0,0,0,0,0,0,0,0,0,0],"split_type":[0,0,0,0,0,0,0,0,0,0,0,0,0,0,0,0,0,0,0,0,0,0,0,0,0,0,0,0,0,0,0,0,0,0,0,0,0,0,0,0,0,0,0,0,0,0,0,0,0,0,0,0,0,0,0,0,0,0,0,0,0,0,0,0,0,0,0,0,0,0,0,0,0,0,0,0,0,0,0,0,0,0,0,0,0,0,0,0,0,0,0,0,0,0,0,0,0,0,0,0,0,0,0,0,0],"sum_hessian":[4.255E3,2.805E3,1.45E3,2.408E3,3.97E2,4.93E2,9.57E2,1.745E3,6.63E2,2.76E2,1.21E2,3.51E2,1.42E2,8.25E2,1.32E2,1.409E3,3.36E2,3.26E2,3.37E2,2.6E1,2.5E2,4.8E1,7.3E1,5E0,3.46E2,7.3E1,6.9E1,1.12E2,7.13E2,3.9E1,9.3E1,1.228E3,1.81E2,5.4E1,2.82E2,2.57E2,8E1,6E0,2E1,1.71E2,7.9E1,5E1,2.3E1,2E0,3E0,2.72E2,7.4E1,1.1E1,6.2E1,4.2E1,2.7E1,5.3E1,5.9E1,3.42E2,3.71E2,1E0,3.8E1,2.7E1,6.6E1,7.8E2,4.48E2,1.64E2,1.7E1,1.7E1,3.7E1,1.97E2,8.5E1,1.34E2,1.23E2,1.6E1,4E0,1.06E2,6.5E1,3.7E1,4.2E1,8E0,4.2E1,7E0,1.6E1,1.88E2,8.4E1,3.9E1,3.5E1,7E0,4E0,4.9E1,1.3E1,1.1E1,3.1E1,1.1E1,1.6E1,1E0,5.2E1,2E0,5.7E1,3.27E2,1.5E1,2.84E2,8.7E1,1E0,3.7E1,1E0,2.6E1,6.3E1,3E0],"tree_param":{"num_deleted":"0","num_feature":"85","num_nodes":"105","size_leaf_vector":"1"}},{"base_weights":[2.3951552E-4,-2.024458E-2,3.9852288E-2,-2.438812E-2,4.8861494E-3,-4.117992E-3,6.24843E-2,-2.6725035E-2,-1.839462E-2,1.844035E-2,-2.5928605E-2,1.8019914E-3,-1.3599449E-2,5.4137014E-2,1.1385554E-1,-2.8423721E-2,-1.8527554E-2,-1.8919172E-2,1.3490099E-2,6.0700953E-2,1.0415109E-2,-2.3174046E-3,-2.356594E-2,1.4978269E-4,3.6757924E-3,1.0846674E-2,-1.6064366E-2,9.623097E-2,4.0800385E-2,1.5406919E-1,9.553212E-2,-3.1126902E-2,-2.350565E-2,-2.2642184E-2,-1.1109785E-2,7.1255155E-3,-2.0178076E-2,-3.7092546E-3,7.882636E-2,-7.5055687E-3,1.2635797E-2,-2.1316037E-2,-2.736507E-2,7.1776593E-3,-5.4308334E-3,3.900273E-2,-1.0616521E-2,-1.8121272E-2,8.590568E-3,4.9546484E-2,1.11251056E-1,5.2196514E-2,2.5454434E-2,1.6076086E-1,7.148497E-3,1.190519E-1,6.7421678E-3,-2.598769E-3,-2.0189108E-3,-1.1706533E-3,-2.232959E-3,-1.0394331E-3,-2.1982787E-3,-3.5819339E-4,-1.4851748E-3,3.3661325E-3,-6.70435E-4,-1.6421586E-3,3.2832497E-3,9.182849E-3,3.2579005E-3,2.3833618E-3,-8.2203325E-5,-1.7711013E-3,-6.182005E-5,-6.8913744E-4,-2.3706849E-3,-1.6461057E-4,1.5981251E-3,5.8399444E-4,-8.5728825E-4,4.7085467E-3,1.2255124E-3,-1.6574988E-4,-1.6364579E-3,-1.6355648E-3,-3.8061844E-4,3.2568078E-3,-3.0961772E-4,-1.7634411E-3,4.937057E-3,8.1710555E-3,1.3751849E-2,3.628331E-3,1.3299931E-2,2.1502299E-3,-3.3325292E-3,6.6905986E-3,1.3441207E-2,1.0088333E-2,4.9112546E-3],"categories":[],"categories_nodes":[],"categories_segments":[],"categories_sizes":[],"default_left":[0,0,0,0,0,0,0,0,0,0,0,0,0,0,0,0,0,0,0,0,0,0,0,0,0,0,0,0,0,0,0,0,0,0,0,0,0,0,0,0,0,0,0,0,0,0,0,0,0,0,0,0,0,0,0,0,0,0,0,0,0,0,0,0,0,0,0,0,0,0,0,0,0,0,0,0,0,0,0,0,0,0,0,0,0,0,0,0,0,0,0,0,0,0,0,0,0,0,0,0,0],"id":11,"left_children":[1,3,5,7,9,11,13,15,17,19,21,23,25,27,29,31,33,35,-1,37,39,-1,41,43,-1,45,47,49,51,53,55,57,59,61,63,65,67,-1,69,-1,71,73,75,77,79,81,83,85,87,89,91,93,95,97,-1,99,-1,-1,-1,-1,-1,-1,-1,-1,-1,-1,-1,-1,-1,-1,-1,-1,-1,-1,-1,-1,-1,-1,-1,-1,-1,-1,-1,-1,-1,-1,-1,-1,-1,-1,-1,-1,-1,-1,-1,-1,-1,-1,-1,-1,-1],"loss_changes":[3.4542608E0,2.9230833E-1,1.4441996E0,3.3249497E-2,1.6671056E-1,2.7752759E-2,4.0463638E-1,2.357757E-2,6.980179E-2,9.331278E-2,1.9332021E-4,2.2239037E-2,1.1623204E-2,4.5978308E-1,8.328271E-2,1.8306017E-2,8.904874E-3,2.237387E-2,0E0,8.904238E-2,5.5350147E-2,0E0,4.921481E-5,1.16088465E-2,0E0,1.1291815E-2,8.928992E-3,1.3332641E-1,1.0867369E-1,2.9565692E-3,1.4849842E-2,6.5460205E-3,1.960826E-2,8.602992E-3,5.3062337E-3,1.7695047E-2,1.4662147E-2,0E0,4.7390893E-2,0E0,5.394522E-2,8.448735E-4,7.6559745E-4,1.5525515E-2,1.1180339E-2,2.8601475E-3,8.8241615E-4,4.8703104E-3,5.760843E-3,4.4910863E-2,6.479025E-2,2.734006E-1,2.6912376E-2,5.531132E-3,0E0,3.6443472E-3,0E0,0E0,0E0,0E0,0E0,0E0,0E0,0E0,0E0,0E0,0E0,0E0,0E0,0E0,0E0,0E0,0E0,0E0,0E0,0E0,0E0,0E0,0E0,0E0,0E0,0E0,0E0,0E0,0E0,0E0,0E0,0E0,0E0,0E0,0E0,0E0,0E0,0E0,0E0,0E0,0E0,0E0,0E0,0E0,0E0],"parents":[2147483647,0,0,1,1,2,2,3,3,4,4,5,5,6,6,7,7,8,8,9,9,10,10,11,11,12,12,13,13,14,14,15,15,16,16,17,17,19,19,20,20,22,22,23,23,25,25,26,26,27,27,28,28,29,29,30,30,31,31,32,32,33,33,34,34,35,35,36,36,38,38,40,40,41,41,42,42,43,43,44,44,45,45,46,46,47,47,48,48,49,49,50,50,51,51,52,52,53,53,55,55],"right_children":[2,4,6,8,10,12,14,16,18,20,22,24,26,28,30,32,34,36,-1,38,40,-1,42,44,-1,46,48,50,52,54,56,58,60,62,64,66,68,-1,70,-1,72,74,76,78,80,82,84,86,88,90,92,94,96,98,-1,100,-1,-1,-1,-1,-1,-1,-1,-1,-1,-1,-1,-1,-1,-1,-1,-1,-1,-1,-1,-1,-1,-1,-1,-1,-1,-1,-1,-1,-1,-1,-1,-1,-1,-1,-1,-1,-1,-1,-1,-1,-1,-1,-1,-1,-1],"split_conditions":[1E0,1E0,1E0,1E0,1E0,1E0,1E0,1E0,1E0,8.785E1,1E0,1E0,1.504E1,2.5835E2,1.6243093E-2,1E0,2.4119769E-1,2.807E1,1.3490099E-2,-5.452924E-1,9.916E1,-2.3174046E-3,1.2086757E0,-6.1674684E-1,3.6757924E-3,1E0,1E0,1E0,1.25006E3,1.2E1,-1.1109207E0,1E0,1E0,-1.3341305E0,-3.4437767E-1,4E0,1E0,-3.7092546E-3,5.8632866E1,-7.5055687E-3,3.154535E2,1.2011129E0,9.916E1,1E0,-5.80013E-1,1E0,7E0,1E0,-5.8437675E-1,-4.9453577E-1,1E0,1E0,2.1336093E0,-1.3341305E0,7.148497E-3,3.81901E3,6.7421678E-3,-2.598769E-3,-2.0189108E-3,-1.1706533E-3,-2.232959E-3,-1.0394331E-3,-2.1982787E-3,-3.5819339E-4,-1.4851748E-3,3.3661325E-3,-6.70435E-4,-1.6421586E-3,3.2832497E-3,9.182849E-3,3.2579005E-3,2.3833618E-3,-8.2203325E-5,-1.7711013E-3,-6.182005E-5,-6.8913744E-4,-2.3706849E-3,-1.6461057E-4,1.5981251E-3,5.8399444E-4,-8.5728825E-4,4.7085467E-3,1.2255124E-3,-1.6574988E-4,-1.6364579E-3,-1.6355648E-3,-3.8061844E-4,3.2568078E-3,-3.0961772E-4,-1.7634411E-3,4.937057E-3,8.1710555E-3,1.3751849E-2,3.628331E-3,1.3299931E-2,2.1502299E-3,-3.3325292E-3,6.6905986E-3,1.3441207E-2,1.0088333E-2,4.9112546E-3],"split_indices":[28,35,79,30,27,20,16,24,5,2,7,13,2,2,84,69,83,2,0,84,2,0,83,83,0,53,5,15,2,1,83,65,36,83,84,1,40,0,2,0,2,83,2,22,84,59,1,15,84,84,22,22,83,83,0,2,0,0,0,0,0,0,0,0,0,0,0,0,0,0,0,0,0,0,0,0,0,0,0,0,0,0,0,0,0,0,0,0,0,0,0,0,0,0,0,0,0,0,0,0,0],"split_type":[0,0,0,0,0,0,0,0,0,0,0,0,0,0,0,0,0,0,0,0,0,0,0,0,0,0,0,0,0,0,0,0,0,0,0,0,0,0,0,0,0,0,0,0,0,0,0,0,0,0,0,0,0,0,0,0,0,0,0,0,0,0,0,0,0,0,0,0,0,0,0,0,0,0,0,0,0,0,0,0,0,0,0,0,0,0,0,0,0,0,0,0,0,0,0,0,0,0,0,0,0],"sum_hessian":[4.255E3,2.805E3,1.45E3,2.408E3,3.97E2,4.93E2,9.57E2,1.73E3,6.78E2,2.76E2,1.21E2,3.04E2,1.89E2,8.25E2,1.32E2,1.431E3,2.99E2,6.77E2,1E0,4.3E1,2.33E2,4.8E1,7.3E1,2.94E2,1E1,1.7E1,1.72E2,1.97E2,6.28E2,3.9E1,9.3E1,9.2E2,5.11E2,1.91E2,1.08E2,3.1E1,6.46E2,6E0,3.7E1,4E0,2.29E2,5E1,2.3E1,1.3E2,1.64E2,7E0,1E1,1.59E2,1.3E1,4.9E1,1.48E2,3.59E2,2.69E2,3.4E1,5E0,2.7E1,6.6E1,7.44E2,1.76E2,1.71E2,3.4E2,6.5E1,1.26E2,5.8E1,5E1,9E0,2.2E1,6.43E2,3E0,1.8E1,1.9E1,1.01E2,1.28E2,4.8E1,2E0,3E0,2E1,7.6E1,5.4E1,4.8E1,1.16E2,3E0,4E0,6E0,4E0,1.35E2,2.4E1,3E0,1E1,7E0,4.2E1,1.31E2,1.7E1,3.4E2,1.9E1,2.64E2,5E0,4E0,3E1,2.3E1,4E0],"tree_param":{"num_deleted":"0","num_feature":"85","num_nodes":"101","size_leaf_vector":"1"}},{"base_weights":[2.4404083E-4,-1.8624643E-2,3.6732864E-2,-2.2435108E-2,4.4860034E-3,-3.7685137E-3,5.7579365E-2,-2.4594601E-2,-1.6896794E-2,1.6977856E-2,-2.3913417E-2,-8.216729E-3,7.2072935E-3,4.98555E-2,1.0511568E-1,-2.6155425E-2,-1.7062286E-2,-1.739924E-2,1.2950497E-2,5.604332E-2,9.559658E-3,-2.6697446E-2,-2.1746784E-2,5.3481E-2,-9.259869E-3,-4.5992285E-3,1.9585513E-2,1.048373E-1,4.1084077E-2,1.4242566E-1,8.812085E-2,-2.8641762E-2,-2.1631846E-2,-1.3799441E-2,-2.5862614E-2,6.6397157E-3,-1.8561292E-2,-3.4549055E-3,7.2847635E-2,-7.0252125E-3,1.1634939E-2,-2.2485284E-3,-1.839106E-2,-1.9646695E-2,-2.5303356E-2,1.4432712E-3,5.3352667E-3,-6.4893197E-3,-1.9221207E-2,3.7153225E-2,-1.2479073E-2,2.6236432E-2,8.672119E-3,1.3462767E-1,7.627868E-2,9.314912E-2,3.67685E-2,1.4847519E-1,6.6719297E-3,1.1006345E-1,7.7635564E-2,-2.330489E-3,-1.1672815E-3,-1.9353257E-3,-6.487998E-4,-1.379184E-3,-2.690755E-5,-2.3600967E-3,-7.5715274E-4,3.123771E-3,-6.191321E-4,-1.5109897E-3,3.0862552E-3,8.486886E-3,3.0102998E-3,2.1945622E-3,-7.567811E-5,-1.6772487E-3,1.911953E-4,-6.860844E-4,-1.7205524E-3,-1.0953317E-3,-2.3423405E-3,-1.3619622E-4,-1.2588733E-3,-1.1445832E-3,-1.9317751E-3,1.6001608E-3,4.573162E-3,-1.4553566E-3,5.7058212E-5,3.5970956E-3,1.3297995E-3,4.8773087E-5,1.1082512E-3,7.87489E-3,1.1782062E-2,7.657263E-3,4.176043E-3,3.5940756E-3,8.247031E-3,6.7531564E-3,2.6252621E-3,6.262401E-3,1.2400597E-2,9.314894E-3,4.596934E-3,3.8215173E-3,6.383213E-3],"categories":[],"categories_nodes":[],"categories_segments":[],"categories_sizes":[],"default_left":[0,0,0,0,0,0,0,0,0,0,0,0,0,0,0,0,0,0,0,0,0,0,0,0,0,0,0,0,0,0,0,0,0,0,0,0,0,0,0,0,0,0,0,0,0,0,0,0,0,0,0,0,0,0,0,0,0,0,0,0,0,0,0,0,0,0,0,0,0,0,0,0,0,0,0,0,0,0,0,0,0,0,0,0,0,0,0,0,0,0,0,0,0,0,0,0,0,0,0,0,0,0,0,0,0,0,0,0,0],"id":12,"left_children":[1,3,5,7,9,11,13,15,17,19,21,23,25,27,29,31,33,35,-1,37,39,41,43,45,47,49,51,53,55,57,59,61,63,65,67,69,71,-1,73,-1,75,-1,77,79,81,-1,-1,83,85,87,89,91,93,95,97,99,101,103,-1,105,107,-1,-1,-1,-1,-1,-1,-1,-1,-1,-1,-1,-1,-1,-1,-1,-1,-1,-1,-1,-1,-1,-1,-1,-1,-1,-1,-1,-1,-1,-1,-1,-1,-1,-1,-1,-1,-1,-1,-1,-1,-1,-1,-1,-1,-1,-1,-1,-1],"loss_changes":[2.9309232E0,2.4720347E-1,1.2253137E0,2.8395891E-2,1.4160101E-1,2.4177663E-2,3.4650254E-1,1.9904494E-2,6.38088E-2,7.973756E-2,1.553148E-4,2.3149729E-2,2.098863E-2,3.9404678E-1,7.1781635E-2,1.54863E-2,8.257344E-3,1.9062847E-2,0E0,7.6515436E-2,4.8308454E-2,5.663559E-5,5.5585057E-5,1.6057845E-3,9.451907E-3,2.480985E-2,4.853362E-3,8.5868E-2,1.5700424E-1,1.9005537E-3,1.3082147E-2,5.9075356E-3,1.7525256E-2,1.0230456E-2,4.494101E-3,1.5213617E-2,1.2783632E-2,0E0,4.04917E-2,0E0,4.5736574E-2,0E0,5.8512366E-4,8.658357E-4,7.0712715E-4,0E0,0E0,1.2056801E-2,1.4699567E-3,2.9752124E-3,4.7610383E-3,6.994432E-3,1.161163E-3,1.0221481E-2,2.3084164E-2,2.1249741E-2,1.217168E-1,3.9147735E-3,0E0,2.695471E-3,4.9999356E-4,0E0,0E0,0E0,0E0,0E0,0E0,0E0,0E0,0E0,0E0,0E0,0E0,0E0,0E0,0E0,0E0,0E0,0E0,0E0,0E0,0E0,0E0,0E0,0E0,0E0,0E0,0E0,0E0,0E0,0E0,0E0,0E0,0E0,0E0,0E0,0E0,0E0,0E0,0E0,0E0,0E0,0E0,0E0,0E0,0E0,0E0,0E0,0E0],"parents":[2147483647,0,0,1,1,2,2,3,3,4,4,5,5,6,6,7,7,8,8,9,9,10,10,11,11,12,12,13,13,14,14,15,15,16,16,17,17,19,19,20,20,21,21,22,22,23,23,24,24,25,25,26,26,27,27,28,28,29,29,30,30,31,31,32,32,33,33,34,34,35,35,36,36,38,38,40,40,42,42,43,43,44,44,47,47,48,48,49,49,50,50,51,51,52,52,53,53,54,54,55,55,56,56,57,57,59,59,60,60],"right_children":[2,4,6,8,10,12,14,16,18,20,22,24,26,28,30,32,34,36,-1,38,40,42,44,46,48,50,52,54,56,58,60,62,64,66,68,70,72,-1,74,-1,76,-1,78,80,82,-1,-1,84,86,88,90,92,94,96,98,100,102,104,-1,106,108,-1,-1,-1,-1,-1,-1,-1,-1,-1,-1,-1,-1,-1,-1,-1,-1,-1,-1,-1,-1,-1,-1,-1,-1,-1,-1,-1,-1,-1,-1,-1,-1,-1,-1,-1,-1,-1,-1,-1,-1,-1,-1,-1,-1,-1,-1,-1,-1],"split_conditions":[1E0,1E0,1E0,1E0,1E0,1E0,1E0,1E0,1E0,8.785E1,1E0,-7.166058E-1,2.023E3,-4.080953E-1,1.6243093E-2,1E0,3.4997E2,2.807E1,1.2950497E-2,-5.452924E-1,9.916E1,2.952367E0,1.2086757E0,1E0,1E0,-5.6316197E-1,1E0,9.510408E-2,1.6187999E2,1.2E1,-1.1109207E0,1E0,1E0,1.1633298E0,1E0,4E0,1E0,-3.4549055E-3,5.8632866E1,-7.0252125E-3,3.154535E2,-2.2485284E-3,1.3995E2,-1.1744081E-1,2.286197E2,1.4432712E-3,5.3352667E-3,1.0819227E-1,1E0,1.2E1,1E0,-1.1109207E0,5E0,8E0,-5.337899E-1,-8.641403E-1,-1.5770341E0,-1.3341305E0,6.6719297E-3,3.81901E3,1.12919E3,-2.330489E-3,-1.1672815E-3,-1.9353257E-3,-6.487998E-4,-1.379184E-3,-2.690755E-5,-2.3600967E-3,-7.5715274E-4,3.123771E-3,-6.191321E-4,-1.5109897E-3,3.0862552E-3,8.486886E-3,3.0102998E-3,2.1945622E-3,-7.567811E-5,-1.6772487E-3,1.911953E-4,-6.860844E-4,-1.7205524E-3,-1.0953317E-3,-2.3423405E-3,-1.3619622E-4,-1.2588733E-3,-1.1445832E-3,-1.9317751E-3,1.6001608E-3,4.573162E-3,-1.4553566E-3,5.7058212E-5,3.5970956E-3,1.3297995E-3,4.8773087E-5,1.1082512E-3,7.87489E-3,1.1782062E-2,7.657263E-3,4.176043E-3,3.5940756E-3,8.247031E-3,6.7531564E-3,2.6252621E-3,6.262401E-3,1.2400597E-2,9.314894E-3,4.596934E-3,3.8215173E-3,6.383213E-3],"split_indices":[28,35,79,30,27,22,16,24,5,2,7,84,0,84,84,69,2,2,0,84,2,83,83,13,14,84,14,83,2,1,83,33,25,83,42,1,40,0,2,0,2,0,2,84,2,0,0,83,20,1,3,83,1,1,84,83,83,83,0,2,2,0,0,0,0,0,0,0,0,0,0,0,0,0,0,0,0,0,0,0,0,0,0,0,0,0,0,0,0,0,0,0,0,0,0,0,0,0,0,0,0,0,0,0,0,0,0,0,0],"split_type":[0,0,0,0,0,0,0,0,0,0,0,0,0,0,0,0,0,0,0,0,0,0,0,0,0,0,0,0,0,0,0,0,0,0,0,0,0,0,0,0,0,0,0,0,0,0,0,0,0,0,0,0,0,0,0,0,0,0,0,0,0,0,0,0,0,0,0,0,0,0,0,0,0,0,0,0,0,0,0,0,0,0,0,0,0,0,0,0,0,0,0,0,0,0,0,0,0,0,0,0,0,0,0,0,0,0,0,0,0],"sum_hessian":[4.255E3,2.805E3,1.45E3,2.408E3,3.97E2,4.93E2,9.57E2,1.73E3,6.78E2,2.76E2,1.21E2,3.51E2,1.42E2,8.25E2,1.32E2,1.431E3,2.99E2,6.77E2,1E0,4.3E1,2.33E2,4.8E1,7.3E1,5E0,3.46E2,7.3E1,6.9E1,1.12E2,7.13E2,3.9E1,9.3E1,9.2E2,5.11E2,2.2E2,7.9E1,3.1E1,6.46E2,6E0,3.7E1,4E0,2.29E2,3.9E1,9E0,5E1,2.3E1,2E0,3E0,2.72E2,7.4E1,1.1E1,6.2E1,4.2E1,2.7E1,5.3E1,5.9E1,5.3E1,6.6E2,3.4E1,5E0,2.7E1,6.6E1,8.88E2,3.2E1,4.29E2,8.2E1,1.75E2,4.5E1,6.4E1,1.5E1,9E0,2.2E1,6.43E2,3E0,1.8E1,1.9E1,1.01E2,1.28E2,8E0,1E0,8E0,4.2E1,7E0,1.6E1,1.8E2,9.2E1,3.9E1,3.5E1,7E0,4E0,4.3E1,1.9E1,1.3E1,2.9E1,1.1E1,1.6E1,1.6E1,3.7E1,3.1E1,2.8E1,1E1,4.3E1,4.9E1,6.11E2,4E0,3E1,2.3E1,4E0,6E0,6E1],"tree_param":{"num_deleted":"0","num_feature":"85","num_nodes":"109","size_leaf_vector":"1"}},{"base_weights":[2.516116E-4,-1.7134678E-2,3.387372E-2,-2.0637633E-2,4.1109333E-3,-3.4403808E-3,5.3079657E-2,-1.8620402E-2,-2.5910895E-2,1.5630947E-2,-2.2078859E-2,1.757462E-3,-1.17661785E-2,4.5930877E-2,9.707825E-2,-1.7957512E-2,-3.3150144E-2,-2.8388318E-2,-2.343744E-2,5.1742632E-2,8.773916E-3,-2.4637865E-2,-2.0086018E-2,2.8567208E-4,3.285474E-3,-1.3781544E-2,1.266518E-2,2.8310016E-2,6.993329E-2,1.3166498E-1,8.132774E-2,-2.0726096E-2,-1.3002181E-2,-1.8371435E-2,-2.7712449E-3,-2.315947E-3,-1.9383415E-3,-2.6692403E-2,-2.0432016E-2,-3.2179975E-3,6.732239E-2,-6.5755993E-3,1.0713354E-2,-2.0731431E-3,-1.706838E-2,-1.812215E-2,-2.3422325E-2,9.0998085E-3,-3.1502857E-3,-1.6681755E-2,2.1439204E-3,3.649472E-3,-3.4649372E-3,2.6486225E-2,1.03330374E-1,9.163712E-2,4.6805114E-2,2.5273967E-3,1.3342088E-1,9.188071E-2,6.335808E-2,-1.8277311E-3,-7.155133E-4,1.5148317E-4,-1.2390777E-3,-1.5770079E-3,-3.0568524E-4,7.469213E-4,-2.1583622E-3,-1.3772283E-3,-1.9122607E-3,7.843669E-3,2.781517E-3,2.0207183E-3,-6.967101E-5,-1.5579778E-3,1.8354744E-4,-1.5807935E-3,-5.4793176E-4,-1.0186585E-3,-2.1659762E-3,2.1029548E-3,9.906728E-5,-2.0810004E-4,-3.2572525E-3,-1.7737305E-3,-8.8934804E-4,-1.25318E-3,5.604254E-3,-1.1544925E-3,-7.4015974E-5,3.069802E-3,9.25817E-4,1.0143174E-2,2.4463348E-3,6.641783E-3,1.1505225E-2,5.367513E-3,1.6932505E-3,1.1511955E-2,7.4933134E-3,2.6618328E-3,7.4725547E-3,3.0878915E-3,5.3435415E-3],"categories":[],"categories_nodes":[],"categories_segments":[],"categories_sizes":[],"default_left":[0,0,0,0,0,0,0,0,0,0,0,0,0,0,0,0,0,0,0,0,0,0,0,0,0,0,0,0,0,0,0,0,0,0,0,0,0,0,0,0,0,0,0,0,0,0,0,0,0,0,0,0,0,0,0,0,0,0,0,0,0,0,0,0,0,0,0,0,0,0,0,0,0,0,0,0,0,0,0,0,0,0,0,0,0,0,0,0,0,0,0,0,0,0,0,0,0,0,0,0,0,0,0,0,0],"id":13,"left_children":[1,3,5,7,9,11,13,15,17,19,21,23,25,27,29,31,33,35,37,39,41,43,45,47,-1,49,51,53,55,57,59,61,63,65,-1,-1,-1,67,69,-1,71,-1,73,-1,75,77,79,81,83,85,87,-1,89,91,93,95,97,-1,99,101,103,-1,-1,-1,-1,-1,-1,-1,-1,-1,-1,-1,-1,-1,-1,-1,-1,-1,-1,-1,-1,-1,-1,-1,-1,-1,-1,-1,-1,-1,-1,-1,-1,-1,-1,-1,-1,-1,-1,-1,-1,-1,-1,-1,-1],"loss_changes":[2.4884834E0,2.0891422E-1,1.0400453E0,2.5143027E-2,1.204244E-1,2.1399118E-2,2.9686666E-1,1.6221404E-2,3.403455E-3,6.813645E-2,1.2728572E-4,1.7634798E-2,9.529786E-3,3.4737134E-1,6.1745048E-2,2.2669137E-2,1.0155886E-3,6.15716E-5,2.7611405E-3,6.575268E-2,4.2164855E-2,3.111735E-5,6.039068E-5,8.962741E-3,0E0,8.164711E-3,8.131154E-3,6.2663764E-2,1.7089832E-1,2.8135777E-3,1.2004077E-2,2.6554227E-2,2.2324443E-2,1.003067E-4,0E0,0E0,0E0,1.8967018E-3,1.5983358E-3,0E0,3.459692E-2,0E0,3.8777012E-2,0E0,5.106146E-4,8.062534E-4,5.9222616E-4,1.1182081E-2,4.287151E-3,4.305564E-3,3.495983E-2,0E0,2.9301277E-4,8.251664E-2,1.4896475E-2,6.852186E-2,8.753312E-2,0E0,2.767682E-3,1.990676E-3,6.548166E-4,0E0,0E0,0E0,0E0,0E0,0E0,0E0,0E0,0E0,0E0,0E0,0E0,0E0,0E0,0E0,0E0,0E0,0E0,0E0,0E0,0E0,0E0,0E0,0E0,0E0,0E0,0E0,0E0,0E0,0E0,0E0,0E0,0E0,0E0,0E0,0E0,0E0,0E0,0E0,0E0,0E0,0E0,0E0,0E0],"parents":[2147483647,0,0,1,1,2,2,3,3,4,4,5,5,6,6,7,7,8,8,9,9,10,10,11,11,12,12,13,13,14,14,15,15,16,16,17,17,18,18,19,19,20,20,21,21,22,22,23,23,25,25,26,26,27,27,28,28,29,29,30,30,31,31,32,32,33,33,37,37,38,38,40,40,42,42,44,44,45,45,46,46,47,47,48,48,49,49,50,50,52,52,53,53,54,54,55,55,56,56,58,58,59,59,60,60],"right_children":[2,4,6,8,10,12,14,16,18,20,22,24,26,28,30,32,34,36,38,40,42,44,46,48,-1,50,52,54,56,58,60,62,64,66,-1,-1,-1,68,70,-1,72,-1,74,-1,76,78,80,82,84,86,88,-1,90,92,94,96,98,-1,100,102,104,-1,-1,-1,-1,-1,-1,-1,-1,-1,-1,-1,-1,-1,-1,-1,-1,-1,-1,-1,-1,-1,-1,-1,-1,-1,-1,-1,-1,-1,-1,-1,-1,-1,-1,-1,-1,-1,-1,-1,-1,-1,-1,-1,-1],"split_conditions":[1E0,1E0,1E0,1E0,1E0,1E0,1E0,1E0,1E0,8.785E1,1E0,1E0,1E0,1E0,1.6243093E-2,1E0,2.3340002E1,1E0,1E0,-5.452924E-1,9.916E1,2.952367E0,1.2086757E0,3.2497757E1,3.285474E-3,1E0,-5.8437675E-1,3.193307E0,3.4997E2,-6.553091E-1,7E0,1E0,5.166925E1,1E0,-2.7712449E-3,-2.315947E-3,-1.9383415E-3,1.895862E0,-1.4340699E-1,-3.2179975E-3,5.8632866E1,-6.5755993E-3,3.154535E2,-2.0731431E-3,1.3995E2,1.177495E0,2.286197E2,-1.1109207E0,1E0,1E0,1E0,3.649472E-3,2.431E1,4.4859564E-1,4.404E2,1E0,1E0,2.5273967E-3,1.4296227E0,5.14661E2,-1.78403E-1,-1.8277311E-3,-7.155133E-4,1.5148317E-4,-1.2390777E-3,-1.5770079E-3,-3.0568524E-4,7.469213E-4,-2.1583622E-3,-1.3772283E-3,-1.9122607E-3,7.843669E-3,2.781517E-3,2.0207183E-3,-6.967101E-5,-1.5579778E-3,1.8354744E-4,-1.5807935E-3,-5.4793176E-4,-1.0186585E-3,-2.1659762E-3,2.1029548E-3,9.906728E-5,-2.0810004E-4,-3.2572525E-3,-1.7737305E-3,-8.8934804E-4,-1.25318E-3,5.604254E-3,-1.1544925E-3,-7.4015974E-5,3.069802E-3,9.25817E-4,1.0143174E-2,2.4463348E-3,6.641783E-3,1.1505225E-2,5.367513E-3,1.6932505E-3,1.1511955E-2,7.4933134E-3,2.6618328E-3,7.4725547E-3,3.0878915E-3,5.3435415E-3],"split_indices":[28,35,79,36,27,20,16,46,22,2,7,13,5,15,84,42,2,6,69,84,2,83,83,2,0,56,84,83,2,84,1,69,2,69,0,0,0,2,83,0,2,0,2,0,2,83,2,83,17,59,13,0,2,83,2,22,23,0,83,2,83,0,0,0,0,0,0,0,0,0,0,0,0,0,0,0,0,0,0,0,0,0,0,0,0,0,0,0,0,0,0,0,0,0,0,0,0,0,0,0,0,0,0,0,0],"split_type":[0,0,0,0,0,0,0,0,0,0,0,0,0,0,0,0,0,0,0,0,0,0,0,0,0,0,0,0,0,0,0,0,0,0,0,0,0,0,0,0,0,0,0,0,0,0,0,0,0,0,0,0,0,0,0,0,0,0,0,0,0,0,0,0,0,0,0,0,0,0,0,0,0,0,0,0,0,0,0,0,0,0,0,0,0,0,0,0,0,0,0,0,0,0,0,0,0,0,0,0,0,0,0,0,0],"sum_hessian":[4.255E3,2.805E3,1.45E3,2.408E3,3.97E2,4.93E2,9.57E2,1.745E3,6.63E2,2.76E2,1.21E2,3.04E2,1.89E2,8.25E2,1.32E2,1.671E3,7.4E1,3.26E2,3.37E2,4.3E1,2.33E2,4.8E1,7.3E1,2.94E2,1E1,1.75E2,1.4E1,4.77E2,3.48E2,3.9E1,9.3E1,1.07E3,6.01E2,8E0,6.6E1,2.82E2,4.4E1,1.58E2,1.79E2,6E0,3.7E1,4E0,2.29E2,3.9E1,9E0,5E1,2.3E1,8.2E1,2.12E2,1.48E2,2.7E1,4E0,1E1,4.67E2,1E1,1.78E2,1.7E2,1E0,3.8E1,5.6E1,3.7E1,9.06E2,1.64E2,8.6E1,5.15E2,7E0,1E0,1E0,1.57E2,9.6E1,8.3E1,1.8E1,1.9E1,1.01E2,1.28E2,8E0,1E0,4.3E1,7E0,7E0,1.6E1,2.5E1,5.7E1,2.1E2,2E0,7.3E1,7.5E1,2.2E1,5E0,1E0,9E0,2.59E2,2.08E2,7E0,3E0,1.55E2,2.3E1,9.4E1,7.6E1,2.8E1,1E1,2E0,5.4E1,6E0,3.1E1],"tree_param":{"num_deleted":"0","num_feature":"85","num_nodes":"105","size_leaf_vector":"1"}},{"base_weights":[2.4670915E-4,-1.5772179E-2,3.1224484E-2,-1.8993778E-2,3.7670382E-3,-3.1527386E-3,4.8918765E-2,-2.0251114E-2,-1.1203128E-2,1.4390517E-2,-2.0384362E-2,-7.077188E-3,6.529493E-3,4.2307004E-2,8.961348E-2,-1.9152796E-2,-2.7576907E-2,7.651136E-3,-1.5397915E-2,4.777157E-2,8.052241E-3,-2.2737196E-2,-1.855094E-2,4.8495427E-2,-8.017703E-3,-4.0112827E-3,1.7579319E-2,8.570132E-2,3.3929843E-2,1.21670105E-1,7.501903E-2,-1.9472867E-2,2.6575716E-3,-2.7886093E-2,-1.246459E-3,-2.8800959E-2,2.2061948E-2,-1.2011822E-2,-2.2994556E-2,-2.9973348E-3,6.2216207E-2,-6.1547607E-3,9.864769E-3,-2.3892974E-2,-1.5840355E-2,-1.7063936E-2,-2.2874834E-2,1.3970728E-3,4.7716466E-3,-4.7641434E-3,-1.5173596E-2,4.5060214E-2,-9.810696E-3,-1.768096E-2,1.9422034E-2,1.249735E-1,7.0951544E-2,2.4251431E-2,5.1906664E-2,6.406053E-2,1.262917E-1,9.472136E-2,6.566553E-2,-1.6785521E-3,-1.2067322E-3,-7.146507E-4,6.406427E-4,-2.569856E-3,-2.151876E-3,-2.760052E-3,-9.321177E-4,-3.0226724E-3,2.1788976E-3,-3.8517913E-4,-1.7523123E-3,-1.9305091E-3,4.6195838E-4,7.2492007E-3,2.5701225E-3,1.4968032E-3,-5.5631937E-4,-1.9322124E-3,-5.506178E-4,-1.4471883E-3,1.7620549E-4,-1.6571179E-3,-1.0669524E-3,-1.9050805E-3,-3.5178885E-4,-4.7998558E-4,2.2094557E-3,-1.3790971E-3,-6.1177143E-6,1.8485296E-3,4.288884E-3,-1.3269797E-3,2.4174077E-4,-1.6941859E-3,-2.8767466E-4,2.143442E-3,6.5587205E-4,1.0940971E-2,3.6161055E-3,5.9374506E-3,-4.665491E-3,1.7927955E-3,7.6966756E-3,6.0394006E-3,1.3660532E-3,8.412096E-3,-4.012085E-3,1.1049551E-2,6.9483444E-3,8.043892E-3,3.8244866E-3,5.732597E-3,4.2768526E-3],"categories":[],"categories_nodes":[],"categories_segments":[],"categories_sizes":[],"default_left":[0,0,0,0,0,0,0,0,0,0,0,0,0,0,0,0,0,0,0,0,0,0,0,0,0,0,0,0,0,0,0,0,0,0,0,0,0,0,0,0,0,0,0,0,0,0,0,0,0,0,0,0,0,0,0,0,0,0,0,0,0,0,0,0,0,0,0,0,0,0,0,0,0,0,0,0,0,0,0,0,0,0,0,0,0,0,0,0,0,0,0,0,0,0,0,0,0,0,0,0,0,0,0,0,0,0,0,0,0,0,0,0,0,0,0,0,0],"id":14,"left_children":[1,3,5,7,9,11,13,15,17,19,21,23,25,27,29,31,33,35,37,39,41,43,45,47,49,51,53,55,57,59,61,63,65,67,-1,69,71,73,75,-1,77,-1,79,81,83,85,87,-1,-1,89,91,93,95,97,99,101,103,105,107,109,111,113,115,-1,-1,-1,-1,-1,-1,-1,-1,-1,-1,-1,-1,-1,-1,-1,-1,-1,-1,-1,-1,-1,-1,-1,-1,-1,-1,-1,-1,-1,-1,-1,-1,-1,-1,-1,-1,-1,-1,-1,-1,-1,-1,-1,-1,-1,-1,-1,-1,-1,-1,-1,-1,-1,-1],"loss_changes":[2.112445E0,1.7670238E-1,8.82769E-1,2.3370385E-2,1.02408946E-1,1.8816942E-2,2.5397182E-1,1.6151309E-2,2.6771009E-2,5.822253E-2,1.0447949E-4,1.8786753E-2,1.672626E-2,2.9736054E-1,5.3096294E-2,1.2659192E-2,5.595386E-4,3.3204272E-2,6.8233237E-3,5.6505412E-2,3.6804512E-2,1.2116507E-5,8.546002E-5,1.0344554E-3,8.006608E-3,2.150143E-2,4.891623E-3,6.8174064E-2,1.1948824E-1,2.5596619E-3,1.1102974E-2,1.1471927E-2,1.7459588E-3,2.2396445E-4,0E0,1.3574585E-3,1.4963608E-2,1.3635008E-2,2.8865635E-3,0E0,2.9560268E-2,0E0,3.434641E-2,1.0453165E-5,4.4571958E-4,5.2636303E-4,1.7279293E-4,0E0,0E0,9.769085E-3,3.3658352E-3,2.6300177E-4,5.8764284E-3,1.2083317E-4,5.3232033E-3,2.6732326E-2,4.613325E-2,5.787006E-2,1.9751841E-1,2.8738597E-2,4.796028E-3,2.848059E-3,1.0688901E-3,0E0,0E0,0E0,0E0,0E0,0E0,0E0,0E0,0E0,0E0,0E0,0E0,0E0,0E0,0E0,0E0,0E0,0E0,0E0,0E0,0E0,0E0,0E0,0E0,0E0,0E0,0E0,0E0,0E0,0E0,0E0,0E0,0E0,0E0,0E0,0E0,0E0,0E0,0E0,0E0,0E0,0E0,0E0,0E0,0E0,0E0,0E0,0E0,0E0,0E0,0E0,0E0,0E0,0E0],"parents":[2147483647,0,0,1,1,2,2,3,3,4,4,5,5,6,6,7,7,8,8,9,9,10,10,11,11,12,12,13,13,14,14,15,15,16,16,17,17,18,18,19,19,20,20,21,21,22,22,23,23,24,24,25,25,26,26,27,27,28,28,29,29,30,30,31,31,32,32,33,33,35,35,36,36,37,37,38,38,40,40,42,42,43,43,44,44,45,45,46,46,49,49,50,50,51,51,52,52,53,53,54,54,55,55,56,56,57,57,58,58,59,59,60,60,61,61,62,62],"right_children":[2,4,6,8,10,12,14,16,18,20,22,24,26,28,30,32,34,36,38,40,42,44,46,48,50,52,54,56,58,60,62,64,66,68,-1,70,72,74,76,-1,78,-1,80,82,84,86,88,-1,-1,90,92,94,96,98,100,102,104,106,108,110,112,114,116,-1,-1,-1,-1,-1,-1,-1,-1,-1,-1,-1,-1,-1,-1,-1,-1,-1,-1,-1,-1,-1,-1,-1,-1,-1,-1,-1,-1,-1,-1,-1,-1,-1,-1,-1,-1,-1,-1,-1,-1,-1,-1,-1,-1,-1,-1,-1,-1,-1,-1,-1,-1,-1,-1],"split_conditions":[1E0,1E0,1E0,1E0,1E0,1E0,1E0,1E0,4E0,8.785E1,1E0,-7.166058E-1,2.023E3,1.7494724E2,1.6243093E-2,1E0,1E0,1E0,1E0,-5.452924E-1,9.916E1,2.952367E0,1.07688E3,1E0,2.1893E2,-5.80013E-1,3.9E0,3.58E1,1E0,-1.3341305E0,-1.1109207E0,1E0,6E0,1E0,-1.246459E-3,1E0,-2.073041E0,1E0,6.2555E2,-2.9973348E-3,5.8632866E1,-6.1547607E-3,6.344892E-2,1.42903E3,1.3995E2,3.0167E2,2.8360503E3,1.3970728E-3,4.7716466E-3,1E0,1E0,1.2E1,1E0,1.895862E0,1E0,1.9645502E-1,2.9628022E0,3.193307E0,1E0,4E0,1.4296227E0,3.81901E3,9.2059517E-1,-1.6785521E-3,-1.2067322E-3,-7.146507E-4,6.406427E-4,-2.569856E-3,-2.151876E-3,-2.760052E-3,-9.321177E-4,-3.0226724E-3,2.1788976E-3,-3.8517913E-4,-1.7523123E-3,-1.9305091E-3,4.6195838E-4,7.2492007E-3,2.5701225E-3,1.4968032E-3,-5.5631937E-4,-1.9322124E-3,-5.506178E-4,-1.4471883E-3,1.7620549E-4,-1.6571179E-3,-1.0669524E-3,-1.9050805E-3,-3.5178885E-4,-4.7998558E-4,2.2094557E-3,-1.3790971E-3,-6.1177143E-6,1.8485296E-3,4.288884E-3,-1.3269797E-3,2.4174077E-4,-1.6941859E-3,-2.8767466E-4,2.143442E-3,6.5587205E-4,1.0940971E-2,3.6161055E-3,5.9374506E-3,-4.665491E-3,1.7927955E-3,7.6966756E-3,6.0394006E-3,1.3660532E-3,8.412096E-3,-4.012085E-3,1.1049551E-2,6.9483444E-3,8.043892E-3,3.8244866E-3,5.732597E-3,4.2768526E-3],"split_indices":[28,35,79,76,27,22,16,3,1,2,7,84,0,2,84,48,69,42,21,84,2,83,2,13,2,84,2,2,15,83,83,24,1,36,0,25,83,25,2,0,2,0,84,2,2,2,2,0,0,8,51,1,3,2,14,83,83,83,23,1,83,2,83,0,0,0,0,0,0,0,0,0,0,0,0,0,0,0,0,0,0,0,0,0,0,0,0,0,0,0,0,0,0,0,0,0,0,0,0,0,0,0,0,0,0,0,0,0,0,0,0,0,0,0,0,0,0],"split_type":[0,0,0,0,0,0,0,0,0,0,0,0,0,0,0,0,0,0,0,0,0,0,0,0,0,0,0,0,0,0,0,0,0,0,0,0,0,0,0,0,0,0,0,0,0,0,0,0,0,0,0,0,0,0,0,0,0,0,0,0,0,0,0,0,0,0,0,0,0,0,0,0,0,0,0,0,0,0,0,0,0,0,0,0,0,0,0,0,0,0,0,0,0,0,0,0,0,0,0,0,0,0,0,0,0,0,0,0,0,0,0,0,0,0,0,0,0],"sum_hessian":[4.255E3,2.805E3,1.45E3,2.408E3,3.97E2,4.93E2,9.57E2,2.072E3,3.36E2,2.76E2,1.21E2,3.51E2,1.42E2,8.25E2,1.32E2,1.805E3,2.67E2,6.1E1,2.75E2,4.3E1,2.33E2,4.8E1,7.3E1,5E0,3.46E2,7.3E1,6.9E1,1.32E2,6.93E2,3.9E1,9.3E1,1.779E3,2.6E1,2.59E2,8E0,1.7E1,4.4E1,1.92E2,8.3E1,6E0,3.7E1,4E0,2.29E2,3.9E1,9E0,5.8E1,1.5E1,2E0,3E0,2.39E2,1.07E2,7E0,6.6E1,3E0,6.6E1,3.4E1,9.8E1,4.52E2,2.41E2,4E0,3.5E1,2.7E1,6.6E1,1.321E3,4.58E2,8E0,1.8E1,4.3E1,2.16E2,1.2E1,5E0,3E0,4.1E1,1.12E2,8E1,8E1,3E0,1.8E1,1.9E1,1.5E2,7.9E1,3.8E1,1E0,8E0,1E0,2.7E1,3.1E1,1.4E1,1E0,2.31E2,8E0,9.4E1,1.3E1,3E0,4E0,4.3E1,2.3E1,2E0,1E0,3.9E1,2.7E1,2.9E1,5E0,9.6E1,2E0,4.42E2,1E1,1.43E2,9.8E1,3E0,1E0,2.5E1,1E1,2.3E1,4E0,4.1E1,2.5E1],"tree_param":{"num_deleted":"0","num_feature":"85","num_nodes":"117","size_leaf_vector":"1"}},{"base_weights":[2.4228958E-4,-1.45190265E-2,2.8788127E-2,-1.7481362E-2,3.4477664E-3,4.1359044E-3,4.9872786E-2,-1.863533E-2,-1.0331037E-2,1.3245078E-2,-1.8825209E-2,-6.695364E-4,3.8129438E-2,6.5971866E-2,2.4066389E-2,-1.762221E-2,-2.5393022E-2,8.560713E-3,-1.3966073E-2,4.4104885E-2,7.3857764E-3,-1.6795862E-3,-1.7134175E-2,3.8577572E-3,-1.0173329E-2,2.9909823E-2,8.921147E-2,7.854643E-2,4.393112E-2,1.503669E-2,4.162426E-2,-1.7916657E-2,2.4422258E-3,-2.5673365E-2,-1.1578219E-3,-2.9467442E-3,7.6535374E-2,-1.20427925E-2,-2.2278288E-2,-2.7918038E-3,5.749731E-2,-5.760856E-3,9.079674E-3,-1.5744992E-2,-2.1185901E-2,1.0365445E-2,-6.8990113E-3,1.0223677E-2,-1.2236755E-2,5.6353208E-2,-7.73454E-3,8.894384E-3,2.2971928E-2,4.6994504E-2,1.0109813E-1,8.924058E-2,1.48459505E-2,3.964284E-2,1.8740604E-3,1.5396168E-3,6.441799E-2,-1.3565964E-3,-1.9576363E-3,-6.63831E-4,5.9208873E-4,-2.36894E-3,-1.980519E-3,4.2938925E-3,-1.2490132E-3,6.5903524E-3,1.425085E-3,-1.0833432E-3,6.169359E-4,-2.3310028E-3,-1.0449413E-3,6.6997875E-3,2.374793E-3,1.7517371E-3,-9.000912E-5,-1.3677065E-3,-6.635219E-4,-1.7628346E-3,-3.3771724E-4,1.442215E-3,-1.1314368E-5,-1.4470549E-3,2.605987E-4,2.721911E-3,-6.4119924E-4,-1.112822E-3,6.21059E-4,6.4771525E-3,2.1371676E-3,1.682388E-3,-1.9685158E-3,4.786819E-4,2.1312176E-3,6.903065E-3,-4.243291E-3,1.0521418E-2,3.4042734E-3,-2.4502524E-3,7.6122573E-3,2.362837E-3,-1.9511183E-4,1.5060748E-3,4.5341956E-3,9.918622E-4,-7.601314E-4,6.459126E-4,-1.0632671E-3,1.654721E-3,5.4174196E-3],"categories":[],"categories_nodes":[],"categories_segments":[],"categories_sizes":[],"default_left":[0,0,0,0,0,0,0,0,0,0,0,0,0,0,0,0,0,0,0,0,0,0,0,0,0,0,0,0,0,0,0,0,0,0,0,0,0,0,0,0,0,0,0,0,0,0,0,0,0,0,0,0,0,0,0,0,0,0,0,0,0,0,0,0,0,0,0,0,0,0,0,0,0,0,0,0,0,0,0,0,0,0,0,0,0,0,0,0,0,0,0,0,0,0,0,0,0,0,0,0,0,0,0,0,0,0,0,0,0,0,0,0,0],"id":15,"left_children":[1,3,5,7,9,11,13,15,17,19,21,23,25,27,29,31,33,35,37,39,41,-1,43,45,47,49,51,53,55,57,59,61,63,65,-1,67,69,71,73,-1,75,-1,77,79,81,83,85,87,89,91,93,-1,95,97,99,101,103,105,107,109,111,-1,-1,-1,-1,-1,-1,-1,-1,-1,-1,-1,-1,-1,-1,-1,-1,-1,-1,-1,-1,-1,-1,-1,-1,-1,-1,-1,-1,-1,-1,-1,-1,-1,-1,-1,-1,-1,-1,-1,-1,-1,-1,-1,-1,-1,-1,-1,-1,-1,-1,-1,-1],"loss_changes":[1.7937863E0,1.494059E-1,7.539998E-1,1.9684732E-2,8.709903E-2,1.0947265E-1,3.2330143E-1,1.374501E-2,2.3262091E-2,4.976054E-2,8.787587E-5,2.5338804E-2,3.2181285E-2,1.2985992E-1,4.7253877E-2,1.0713518E-2,4.4889748E-4,4.324738E-2,4.2559505E-3,4.856001E-2,3.2124393E-2,0E0,8.294359E-5,2.8002184E-2,8.121772E-3,7.310329E-2,1.3452888E-2,2.1227145E-1,2.319316E-1,6.502592E-2,9.3096E-2,1.0774851E-2,1.499406E-3,2.0578504E-4,0E0,3.5261173E-2,1.2779124E-3,6.974403E-3,2.9067695E-3,0E0,2.5256872E-2,0E0,3.0107524E-2,4.5226235E-4,1.3756752E-4,2.0048603E-2,1.7218985E-2,8.086216E-3,5.898362E-3,2.9203072E-2,1.5562084E-2,0E0,8.9871464E-5,5.116476E-1,3.0962408E-1,5.1817536E-2,2.774779E-2,2.3755535E-2,1.592089E-2,3.7897567E-3,7.979602E-3,0E0,0E0,0E0,0E0,0E0,0E0,0E0,0E0,0E0,0E0,0E0,0E0,0E0,0E0,0E0,0E0,0E0,0E0,0E0,0E0,0E0,0E0,0E0,0E0,0E0,0E0,0E0,0E0,0E0,0E0,0E0,0E0,0E0,0E0,0E0,0E0,0E0,0E0,0E0,0E0,0E0,0E0,0E0,0E0,0E0,0E0,0E0,0E0,0E0,0E0,0E0,0E0],"parents":[2147483647,0,0,1,1,2,2,3,3,4,4,5,5,6,6,7,7,8,8,9,9,10,10,11,11,12,12,13,13,14,14,15,15,16,16,17,17,18,18,19,19,20,20,22,22,23,23,24,24,25,25,26,26,27,27,28,28,29,29,30,30,31,31,32,32,33,33,35,35,36,36,37,37,38,38,40,40,42,42,43,43,44,44,45,45,46,46,47,47,48,48,49,49,50,50,52,52,53,53,54,54,55,55,56,56,57,57,58,58,59,59,60,60],"right_children":[2,4,6,8,10,12,14,16,18,20,22,24,26,28,30,32,34,36,38,40,42,-1,44,46,48,50,52,54,56,58,60,62,64,66,-1,68,70,72,74,-1,76,-1,78,80,82,84,86,88,90,92,94,-1,96,98,100,102,104,106,108,110,112,-1,-1,-1,-1,-1,-1,-1,-1,-1,-1,-1,-1,-1,-1,-1,-1,-1,-1,-1,-1,-1,-1,-1,-1,-1,-1,-1,-1,-1,-1,-1,-1,-1,-1,-1,-1,-1,-1,-1,-1,-1,-1,-1,-1,-1,-1,-1,-1,-1,-1,-1,-1],"split_conditions":[1E0,1E0,1E0,1E0,1E0,1E0,1E0,1E0,-1.5745944E0,8.785E1,1E0,1E0,3.193307E0,1E0,1E0,1E0,1E0,-1.5813872E0,1.1944848E0,-5.452924E-1,9.916E1,-1.6795862E-3,1.07688E3,7.56121E-1,1.504E1,5E0,4.404E2,-3.8805848E-1,1.0965E2,1E0,1E0,1E0,6E0,1E0,-1.1578219E-3,-2.232781E-1,3.4468E2,1E0,1E0,-2.7918038E-3,5.8632866E1,-5.760856E-3,3.154535E2,9.1176355E2,2.8360503E3,1E0,1.1827255E0,1E0,1E0,8.0497E2,2.2357E2,8.894384E-3,5.8814435E2,1E0,9.4032E2,4E0,2.0348586E-1,1E0,1E0,9E0,-1.1744081E-1,-1.3565964E-3,-1.9576363E-3,-6.63831E-4,5.9208873E-4,-2.36894E-3,-1.980519E-3,4.2938925E-3,-1.2490132E-3,6.5903524E-3,1.425085E-3,-1.0833432E-3,6.169359E-4,-2.3310028E-3,-1.0449413E-3,6.6997875E-3,2.374793E-3,1.7517371E-3,-9.000912E-5,-1.3677065E-3,-6.635219E-4,-1.7628346E-3,-3.3771724E-4,1.442215E-3,-1.1314368E-5,-1.4470549E-3,2.605987E-4,2.721911E-3,-6.4119924E-4,-1.112822E-3,6.21059E-4,6.4771525E-3,2.1371676E-3,1.682388E-3,-1.9685158E-3,4.786819E-4,2.1312176E-3,6.903065E-3,-4.243291E-3,1.0521418E-2,3.4042734E-3,-2.4502524E-3,7.6122573E-3,2.362837E-3,-1.9511183E-4,1.5060748E-3,4.5341956E-3,9.918622E-4,-7.601314E-4,6.459126E-4,-1.0632671E-3,1.654721E-3,5.4174196E-3],"split_indices":[28,35,39,76,27,17,17,3,83,2,7,20,83,23,21,48,69,83,83,84,2,0,2,83,2,1,2,83,2,53,53,20,1,36,0,84,2,23,42,0,2,0,2,2,2,21,83,53,5,2,2,0,2,25,2,1,83,24,24,1,84,0,0,0,0,0,0,0,0,0,0,0,0,0,0,0,0,0,0,0,0,0,0,0,0,0,0,0,0,0,0,0,0,0,0,0,0,0,0,0,0,0,0,0,0,0,0,0,0,0,0,0,0],"split_type":[0,0,0,0,0,0,0,0,0,0,0,0,0,0,0,0,0,0,0,0,0,0,0,0,0,0,0,0,0,0,0,0,0,0,0,0,0,0,0,0,0,0,0,0,0,0,0,0,0,0,0,0,0,0,0,0,0,0,0,0,0,0,0,0,0,0,0,0,0,0,0,0,0,0,0,0,0,0,0,0,0,0,0,0,0,0,0,0,0,0,0,0,0,0,0,0,0,0,0,0,0,0,0,0,0,0,0,0,0,0,0,0,0],"sum_hessian":[4.255E3,2.805E3,1.45E3,2.408E3,3.97E2,6.69E2,7.81E2,2.072E3,3.36E2,2.76E2,1.21E2,5.87E2,8.2E1,4.8E2,3.01E2,1.805E3,2.67E2,5.4E1,2.82E2,4.3E1,2.33E2,4.8E1,7.3E1,3.98E2,1.89E2,7.2E1,1E1,3.04E2,1.76E2,2E2,1.01E2,1.779E3,2.6E1,2.59E2,8E0,4.7E1,7E0,2.31E2,5.1E1,6E0,3.7E1,4E0,2.29E2,5.8E1,1.5E1,2.48E2,1.5E2,1.7E1,1.72E2,4.2E1,3E1,7E0,3E0,1.28E2,1.76E2,6.8E1,1.08E2,6.9E1,1.31E2,3.7E1,6.4E1,1.555E3,2.24E2,8E0,1.8E1,4.3E1,2.16E2,8E0,3.9E1,6E0,1E0,2.15E2,1.6E1,2.8E1,2.3E1,1.8E1,1.9E1,1.01E2,1.28E2,4.8E1,1E1,1.4E1,1E0,1.43E2,1.05E2,7.1E1,7.9E1,7E0,1E1,1.59E2,1.3E1,2.2E1,2E1,1.1E1,1.9E1,1E0,2E0,9.2E1,3.6E1,1.15E2,6.1E1,3E0,6.5E1,5.8E1,5E1,3.2E1,3.7E1,6.8E1,6.3E1,2.6E1,1.1E1,5E0,5.9E1],"tree_param":{"num_deleted":"0","num_feature":"85","num_nodes":"113","size_leaf_vector":"1"}},{"base_weights":[2.3540837E-4,-1.3359394E-2,2.65254E-2,-1.6083548E-2,3.1628306E-3,-2.7142912E-3,4.1575383E-2,-1.4436207E-2,-2.0391036E-2,1.2193356E-2,-1.7366827E-2,1.4290136E-3,-9.3511E-3,3.5935234E-2,7.6291084E-2,-1.2881208E-2,-1.8939832E-2,-2.2487817E-2,-1.8302165E-2,4.0719282E-2,6.777398E-3,-1.9349521E-2,-1.5819276E-2,1.3727148E-4,2.875302E-3,9.521378E-3,-1.12606585E-2,7.316221E-2,2.8749177E-2,1.0105406E-1,6.333706E-2,-1.2119445E-2,-2.6515534E-2,-1.9167783E-2,1.1040462E-2,-1.8361147E-3,-1.5257965E-3,-1.670429E-2,-1.8532595E-3,-2.6003656E-3,5.3136326E-2,-1.540225E-2,1.3042777E-2,-2.0406013E-2,-1.3188598E-2,-1.3941503E-2,-1.8406276E-2,7.3626003E-4,-3.4898566E-3,3.1642213E-2,-7.4320836E-3,-1.2804409E-2,7.186541E-3,1.08355604E-1,5.998109E-2,3.8102962E-2,1.39191495E-2,1.965475E-3,1.0411127E-1,7.185788E-2,4.0793743E-2,-9.971332E-4,1.9218583E-3,-1.1102993E-3,-2.2375302E-3,-1.3371182E-3,-1.7263257E-3,1.8269306E-3,-9.7392197E-4,-1.0863759E-3,-1.6283004E-3,5.7305545E-3,1.3050408E-3,-2.0926127E-3,2.590899E-3,4.0053115E-3,1.968326E-5,-1.6506775E-3,-4.614096E-4,-1.22484E-3,2.3634075E-4,-1.1937118E-3,4.3232532E-4,-2.3758128E-4,-1.5094405E-3,5.2147725E-4,-3.0030336E-4,3.7880691E-3,1.0197482E-3,-7.17972E-6,-1.2979951E-3,-1.1793056E-3,-1.4043476E-4,2.8421388E-3,-3.0178443E-4,9.53968E-3,2.8675487E-3,5.036798E-3,-4.506392E-3,2.4725185E-3,1.0546113E-2,1.3591398E-3,-1.0577623E-3,9.184106E-3,5.425547E-3,6.0952315E-3,3.5245274E-3,3.7274132E-3,-1.6902811E-3],"categories":[],"categories_nodes":[],"categories_segments":[],"categories_sizes":[],"default_left":[0,0,0,0,0,0,0,0,0,0,0,0,0,0,0,0,0,0,0,0,0,0,0,0,0,0,0,0,0,0,0,0,0,0,0,0,0,0,0,0,0,0,0,0,0,0,0,0,0,0,0,0,0,0,0,0,0,0,0,0,0,0,0,0,0,0,0,0,0,0,0,0,0,0,0,0,0,0,0,0,0,0,0,0,0,0,0,0,0,0,0,0,0,0,0,0,0,0,0,0,0,0,0,0,0,0,0,0,0],"id":16,"left_children":[1,3,5,7,9,11,13,15,17,19,21,23,25,27,29,31,33,35,37,39,41,43,45,47,-1,49,51,53,55,57,59,61,63,65,67,-1,-1,69,-1,-1,71,73,75,77,79,81,83,85,-1,87,89,91,93,95,97,99,101,-1,103,105,107,-1,-1,-1,-1,-1,-1,-1,-1,-1,-1,-1,-1,-1,-1,-1,-1,-1,-1,-1,-1,-1,-1,-1,-1,-1,-1,-1,-1,-1,-1,-1,-1,-1,-1,-1,-1,-1,-1,-1,-1,-1,-1,-1,-1,-1,-1,-1,-1],"loss_changes":[1.5214796E0,1.2634635E-1,6.386354E-1,1.6799688E-2,7.3998414E-2,1.3597536E-2,1.848365E-1,1.1983454E-2,2.4966598E-3,4.2519204E-2,6.824359E-5,1.3592254E-2,6.954452E-3,2.1886408E-1,3.6263287E-2,1.31910145E-2,3.2595545E-3,8.003414E-5,2.2397637E-3,4.1733027E-2,3.2718442E-2,4.9810857E-5,1.0286644E-4,7.7646663E-3,0E0,6.985613E-3,5.0186925E-3,5.5197835E-2,9.5739126E-2,7.730782E-3,1.4356524E-2,1.5673965E-2,8.608997E-4,2.2604913E-3,1.373382E-3,0E0,0E0,2.6655942E-3,0E0,0E0,2.4712108E-2,2.7574355E-2,8.668969E-2,1.4176592E-5,3.8776686E-4,9.715948E-4,1.435373E-4,7.605491E-3,0E0,1.7709909E-3,7.0870493E-4,3.3982638E-3,4.4820793E-3,2.3364365E-2,3.7847757E-2,2.8257942E-1,2.2722676E-2,0E0,8.508712E-3,4.3521225E-3,1.0679655E-2,0E0,0E0,0E0,0E0,0E0,0E0,0E0,0E0,0E0,0E0,0E0,0E0,0E0,0E0,0E0,0E0,0E0,0E0,0E0,0E0,0E0,0E0,0E0,0E0,0E0,0E0,0E0,0E0,0E0,0E0,0E0,0E0,0E0,0E0,0E0,0E0,0E0,0E0,0E0,0E0,0E0,0E0,0E0,0E0,0E0,0E0,0E0,0E0],"parents":[2147483647,0,0,1,1,2,2,3,3,4,4,5,5,6,6,7,7,8,8,9,9,10,10,11,11,12,12,13,13,14,14,15,15,16,16,17,17,18,18,19,19,20,20,21,21,22,22,23,23,25,25,26,26,27,27,28,28,29,29,30,30,31,31,32,32,33,33,34,34,37,37,40,40,41,41,42,42,43,43,44,44,45,45,46,46,47,47,49,49,50,50,51,51,52,52,53,53,54,54,55,55,56,56,58,58,59,59,60,60],"right_children":[2,4,6,8,10,12,14,16,18,20,22,24,26,28,30,32,34,36,38,40,42,44,46,48,-1,50,52,54,56,58,60,62,64,66,68,-1,-1,70,-1,-1,72,74,76,78,80,82,84,86,-1,88,90,92,94,96,98,100,102,-1,104,106,108,-1,-1,-1,-1,-1,-1,-1,-1,-1,-1,-1,-1,-1,-1,-1,-1,-1,-1,-1,-1,-1,-1,-1,-1,-1,-1,-1,-1,-1,-1,-1,-1,-1,-1,-1,-1,-1,-1,-1,-1,-1,-1,-1,-1,-1,-1,-1,-1],"split_conditions":[1E0,1E0,1E0,